{"learner":{"attributes":{"scikit_learn":"{\"_estimator_type\": \"classifier\"}"},"feature_names":["single_alert_amount_pct","single_alert_amount_abs","single_alert_t_value","alert_summary_status","single_alert_new_value","single_alert_prev_value","single_alert_status","single_alert_series_signature_tags_bytecode-cached, cold, fission, webrender","single_alert_series_signature_tags_bytecode-cached, fission, warm, webrender","single_alert_series_signature_tags_cold, fission, interactive, webrender","single_alert_series_signature_tags_cold, fission, webrender","single_alert_series_signature_tags_cold, webrender","single_alert_series_signature_tags_fission, warm, webrender","single_alert_series_signature_tags_fission, webrender","single_alert_series_signature_tags_warm, webrender","single_alert_series_signature_tags_webrender","single_alert_manually_created_True","single_alert_series_signature_suite_freq"],"feature_types":["float","float","float","float","float","float","float","i","i","i","i","i","i","i","i","i","i","float"],"gradient_booster":{"model":{"cats":{"enc":[],"feature_segments":[],"sorted_idx":[]},"gbtree_model_param":{"num_parallel_tree":"1","num_trees":"200"},"iteration_indptr":[0,1,2,3,4,5,6,7,8,9,10,11,12,13,14,15,16,17,18,19,20,21,22,23,24,25,26,27,28,29,30,31,32,33,34,35,36,37,38,39,40,41,42,43,44,45,46,47,48,49,50,51,52,53,54,55,56,57,58,59,60,61,62,63,64,65,66,67,68,69,70,71,72,73,74,75,76,77,78,79,80,81,82,83,84,85,86,87,88,89,90,91,92,93,94,95,96,97,98,99,100,101,102,103,104,105,106,107,108,109,110,111,112,113,114,115,116,117,118,119,120,121,122,123,124,125,126,127,128,129,130,131,132,133,134,135,136,137,138,139,140,141,142,143,144,145,146,147,148,149,150,151,152,153,154,155,156,157,158,159,160,161,162,163,164,165,166,167,168,169,170,171,172,173,174,175,176,177,178,179,180,181,182,183,184,185,186,187,188,189,190,191,192,193,194,195,196,197,198,199,200],"tree_info":[0,0,0,0,0,0,0,0,0,0,0,0,0,0,0,0,0,0,0,0,0,0,0,0,0,0,0,0,0,0,0,0,0,0,0,0,0,0,0,0,0,0,0,0,0,0,0,0,0,0,0,0,0,0,0,0,0,0,0,0,0,0,0,0,0,0,0,0,0,0,0,0,0,0,0,0,0,0,0,0,0,0,0,0,0,0,0,0,0,0,0,0,0,0,0,0,0,0,0,0,0,0,0,0,0,0,0,0,0,0,0,0,0,0,0,0,0,0,0,0,0,0,0,0,0,0,0,0,0,0,0,0,0,0,0,0,0,0,0,0,0,0,0,0,0,0,0,0,0,0,0,0,0,0,0,0,0,0,0,0,0,0,0,0,0,0,0,0,0,0,0,0,0,0,0,0,0,0,0,0,0,0,0,0,0,0,0,0,0,0,0,0,0,0,0,0,0,0,0,0],"trees":[{"base_weights":[1.6012699E-8,-1.944823E0,1.9411671E0,-1.9751925E0,-1.8924628E-1,1.9871646E0,-1.0941602E0,-1.9888546E0,-3.0250648E-1,-1.1495931E0,1.6486415E0,1.5384616E0,9.9857114E-2,-1.2537636E0,5.768742E-2,-9.963488E-2,7.5164014E-1,-8.6451614E-1,7.541528E-2,-1.3539028E0,4.26027E-2,8.327599E-3,9.019868E-2,1.6835854E0,4.3955016E-1,-8.519991E-1,-9.02439E-2,5.055679E-2,8.327599E-3,-8.518519E-2,9.316156E-2,-8.44328E-2,-2.4329574E-1,6.824926E-1,1.7438078E0,7.7316076E-2,-6.666667E-2,-1.4718868E0,7.541528E-2,-4.559145E-2,3.653113E-2,6.302055E-2,-5.8891542E-2,6.302055E-2,-1.956912E-2,5.7504434E-2,9.6084654E-2,5.768742E-2,-9.2156865E-2],"categories":[],"categories_nodes":[],"categories_segments":[],"categories_sizes":[],"default_left":[0,0,0,0,0,0,0,0,0,0,0,0,0,0,0,0,0,0,0,0,0,0,0,0,0,0,0,0,0,0,0,0,0,0,0,0,0,0,0,0,0,0,0,0,0,0,0,0,0],"id":0,"left_children":[1,3,5,7,9,11,13,15,17,19,21,23,-1,25,-1,-1,27,29,-1,31,-1,-1,-1,33,35,37,-1,-1,-1,-1,39,-1,41,43,45,-1,-1,47,-1,-1,-1,-1,-1,-1,-1,-1,-1,-1,-1],"loss_changes":[1.3719174E4,9.6410645E1,2.5609717E2,4.0174316E1,5.8330532E1,4.9492188E0,1.1418396E1,2.0134766E1,1.7215736E1,9.982996E0,2.3204174E0,6.1707E0,0E0,4.314533E0,0E0,0E0,3.1808114E-1,1.0258911E1,0E0,7.0160866E0,0E0,0E0,0E0,1.0962982E0,1.4636192E1,2.7357887E1,0E0,0E0,0E0,0E0,5.0338254E0,0E0,9.628134E0,2.8485532E0,1.5000916E0,0E0,0E0,1.588378E1,0E0,0E0,0E0,0E0,0E0,0E0,0E0,0E0,0E0,0E0,0E0],"parents":[2147483647,0,0,1,1,2,2,3,3,4,4,5,5,6,6,7,7,8,8,9,9,10,10,11,11,13,13,16,16,17,17,19,19,23,23,24,24,25,25,30,30,32,32,33,33,34,34,37,37],"right_children":[2,4,6,8,10,12,14,16,18,20,22,24,-1,26,-1,-1,28,30,-1,32,-1,-1,-1,34,36,38,-1,-1,-1,-1,40,-1,42,44,46,-1,-1,48,-1,-1,-1,-1,-1,-1,-1,-1,-1,-1,-1],"split_conditions":[1.8E-1,1E0,1E0,-6E-2,1.4453277E-3,9.45022E-4,1.77575E3,1E0,1.038E1,2.224E1,3.07E0,8.8943244E-4,9.9857114E-2,1.4453277E-3,5.768742E-2,-9.963488E-2,1.068E1,9.4E-1,7.541528E-2,1.265E1,4.26027E-2,8.327599E-3,9.019868E-2,8.31E0,3.5206E2,9.45022E-4,-9.02439E-2,5.055679E-2,8.327599E-3,-8.518519E-2,2.57E0,-8.44328E-2,5.0030573E-4,3.78E0,4.4471622E-4,7.7316076E-2,-6.666667E-2,2.782E1,7.541528E-2,-4.559145E-2,3.653113E-2,6.302055E-2,-5.8891542E-2,6.302055E-2,-1.956912E-2,5.7504434E-2,9.6084654E-2,5.768742E-2,-9.2156865E-2],"split_indices":[1,13,13,1,17,17,4,15,0,0,0,17,0,17,0,0,2,4,0,2,0,0,0,5,4,17,0,0,0,0,0,0,17,4,17,0,0,4,0,0,0,0,0,0,0,0,0,0,0],"split_type":[0,0,0,0,0,0,0,0,0,0,0,0,0,0,0,0,0,0,0,0,0,0,0,0,0,0,0,0,0,0,0,0,0,0,0,0,0,0,0,0,0,0,0,0,0,0,0,0,0],"sum_hessian":[3.632E3,1.8142905E3,1.8177095E3,1.783316E3,3.0974474E1,1.7909152E3,2.6794294E1,1.7686809E3,1.4635136E1,2.059009E1,1.0384384E1,4.2333332E1,1.7485819E3,2.5430931E1,1.3633634E0,1.7664767E3,2.2042043E0,1.1567568E1,3.0675676E0,1.8976727E1,1.6133634E0,1.1816816E0,9.2027025E0,3.6924927E1,5.4084086E0,1.6180931E1,9.25E0,1.0225226E0,1.1816816E0,5.75E0,5.817568E0,1.4181682E1,4.795045E0,2.7950451E0,3.412988E1,3.4084084E0,2E0,1.3113363E1,3.0675676E0,2.0908408E0,3.7267268E0,1.7042042E0,3.0908408E0,1.7042042E0,1.0908408E0,9.589339E0,2.454054E1,1.3633634E0,1.175E1],"tree_param":{"num_deleted":"0","num_feature":"18","num_nodes":"49","size_leaf_vector":"1"}},{"base_weights":[8.756229E-5,-1.8521955E0,1.8489128E0,-1.8811811E0,-1.7815988E-1,1.8927345E0,-1.0410784E0,-1.8942027E0,-2.8891352E-1,-1.0954326E0,1.5775063E0,1.4688735E0,9.5107816E-2,-1.1952112E0,5.6050844E-2,-9.489506E-2,7.3259276E-1,6.4271104E-1,-1.3375005E0,-1.2921796E0,4.1299425E-2,8.102144E-3,8.629163E-2,1.6074634E0,4.1972587E-1,-8.084835E-1,-8.633309E-2,4.929499E-2,8.102144E-3,-6.8291897E-1,1.3185138E0,-7.921087E-2,-1.9893585E-2,-8.0625646E-2,-2.3059517E-1,6.60139E-1,1.6640997E0,7.441457E-2,-6.449301E-2,-1.4033773E0,7.265074E-2,-5.3880926E-2,-1.8405272E-3,2.0221863E-2,7.632118E-2,6.1073598E-2,-5.670452E-2,-1.9735517E-2,6.158731E-2,5.494255E-2,9.167507E-2,5.6050844E-2,-8.8085525E-2],"categories":[],"categories_nodes":[],"categories_segments":[],"categories_sizes":[],"default_left":[0,0,0,0,0,0,0,0,0,0,0,0,0,0,0,0,0,0,0,0,0,0,0,0,0,0,0,0,0,0,0,0,0,0,0,0,0,0,0,0,0,0,0,0,0,0,0,0,0,0,0,0,0],"id":1,"left_children":[1,3,5,7,9,11,13,15,17,19,21,23,-1,25,-1,-1,27,29,31,33,-1,-1,-1,35,37,39,-1,-1,-1,41,43,-1,-1,-1,45,47,49,-1,-1,51,-1,-1,-1,-1,-1,-1,-1,-1,-1,-1,-1,-1,-1],"loss_changes":[1.2414263E4,8.753223E1,2.3173291E2,3.6356934E1,5.3141533E1,4.3442383E0,1.0585516E1,1.8541504E1,1.611671E1,9.217634E0,2.1065674E0,5.615326E0,0E0,4.026165E0,0E0,0E0,3.0323005E-1,8.914565E0,1.1483049E0,6.411396E0,0E0,0E0,0E0,9.327011E-1,1.3613244E1,2.5112614E1,0E0,0E0,0E0,8.986436E-1,5.735426E-1,0E0,0E0,0E0,8.982255E0,2.7733583E0,1.3429108E0,0E0,0E0,1.4717932E1,0E0,0E0,0E0,0E0,0E0,0E0,0E0,0E0,0E0,0E0,0E0,0E0,0E0],"parents":[2147483647,0,0,1,1,2,2,3,3,4,4,5,5,6,6,7,7,8,8,9,9,10,10,11,11,13,13,16,16,17,17,18,18,19,19,23,23,24,24,25,25,29,29,30,30,34,34,35,35,36,36,39,39],"right_children":[2,4,6,8,10,12,14,16,18,20,22,24,-1,26,-1,-1,28,30,32,34,-1,-1,-1,36,38,40,-1,-1,-1,42,44,-1,-1,-1,46,48,50,-1,-1,52,-1,-1,-1,-1,-1,-1,-1,-1,-1,-1,-1,-1,-1],"split_conditions":[1.8E-1,1E0,1E0,-6E-2,1.4453277E-3,9.45022E-4,1.77575E3,1E0,5.6701316E-3,2.224E1,3.07E0,8.8943244E-4,9.5107816E-2,1.4453277E-3,5.6050844E-2,-9.489506E-2,1.068E1,4.22E0,9.4E-1,1.265E1,4.1299425E-2,8.102144E-3,8.629163E-2,8.31E0,3.5206E2,9.45022E-4,-8.633309E-2,4.929499E-2,8.102144E-3,3E0,2.112402E-3,-7.921087E-2,-1.9893585E-2,-8.0625646E-2,5.0030573E-4,6.114848E-4,4.4471622E-4,7.441457E-2,-6.449301E-2,2.782E1,7.265074E-2,-5.3880926E-2,-1.8405272E-3,2.0221863E-2,7.632118E-2,6.1073598E-2,-5.670452E-2,-1.9735517E-2,6.158731E-2,5.494255E-2,9.167507E-2,5.6050844E-2,-8.8085525E-2],"split_indices":[1,13,13,1,17,17,4,15,17,0,0,17,0,17,0,0,2,0,4,2,0,0,0,5,4,17,0,0,0,6,17,0,0,0,17,17,17,0,0,4,0,0,0,0,0,0,0,0,0,0,0,0,0],"split_type":[0,0,0,0,0,0,0,0,0,0,0,0,0,0,0,0,0,0,0,0,0,0,0,0,0,0,0,0,0,0,0,0,0,0,0,0,0,0,0,0,0,0,0,0,0,0,0,0,0,0,0,0,0],"sum_hessian":[3.6230808E3,1.809847E3,1.8132338E3,1.7789216E3,3.0925415E1,1.7864899E3,2.674395E1,1.7643036E3,1.461803E1,2.0559744E1,1.0365672E1,4.2259754E1,1.7442301E3,2.5381721E1,1.3622298E0,1.7621E3,2.2035306E0,7.945692E0,6.6723375E0,1.8947111E1,1.6126316E0,1.1816612E0,9.1840105E0,3.6858654E1,5.401099E0,1.6150528E1,9.231194E0,1.0218694E0,1.1816612E0,2.6793826E0,5.2663093E0,4.741393E0,1.9309444E0,1.4156436E1,4.7906756E0,2.7932496E0,3.4065403E1,3.4033198E0,1.9977794E0,1.3087317E1,3.06321E0,1.2487044E0,1.4306782E0,1.5216451E0,3.7446644E0,1.7025132E0,3.0881624E0,1.0904309E0,1.7028189E0,9.581417E0,2.4483988E1,1.3622298E0,1.1725088E1],"tree_param":{"num_deleted":"0","num_feature":"18","num_nodes":"53","size_leaf_vector":"1"}},{"base_weights":[1.5821608E-4,-1.7720389E0,1.7691177E0,-1.7998791E0,-1.6813491E-1,1.8110842E0,-9.938863E-1,-1.8123658E0,-2.789715E-1,-1.0465518E0,1.5141299E0,1.4068772E0,9.100404E-2,-1.1433532E0,5.4511804E-2,-9.079754E-2,7.143281E-1,6.164692E-1,-1.2875503E0,-1.2366945E0,4.0057834E-2,7.882954E-3,8.283853E-2,1.5397764E0,4.0164188E-1,-7.69668E-1,-8.287702E-2,4.809531E-2,7.882954E-3,-6.6448045E-1,1.2712373E0,-7.62574E-2,-1.9237576E-2,-7.723009E-2,-2.1879286E-1,6.388814E-1,1.5934925E0,7.17799E-2,-6.2479563E-2,-1.3426557E0,7.013106E-2,-5.2521463E-2,-1.7226249E-3,1.961499E-2,7.354994E-2,5.9258725E-2,-5.4667126E-2,-1.9221151E-2,5.9738632E-2,5.2568555E-2,8.7830074E-2,5.4511804E-2,-8.450306E-2],"categories":[],"categories_nodes":[],"categories_segments":[],"categories_sizes":[],"default_left":[0,0,0,0,0,0,0,0,0,0,0,0,0,0,0,0,0,0,0,0,0,0,0,0,0,0,0,0,0,0,0,0,0,0,0,0,0,0,0,0,0,0,0,0,0,0,0,0,0,0,0,0,0],"id":2,"left_children":[1,3,5,7,9,11,13,15,17,19,21,23,-1,25,-1,-1,27,29,31,33,-1,-1,-1,35,37,39,-1,-1,-1,41,43,-1,-1,-1,45,47,49,-1,-1,51,-1,-1,-1,-1,-1,-1,-1,-1,-1,-1,-1,-1,-1],"loss_changes":[1.1286307E4,8.000293E1,2.1071631E2,3.3063965E1,4.8557602E1,3.8945312E0,9.844788E0,1.7177246E1,1.486095E1,8.5352955E0,1.9277229E0,5.133362E0,0E0,3.7667084E0,0E0,0E0,2.8958547E-1,8.332095E0,1.0539513E0,5.887726E0,0E0,0E0,0E0,8.050842E-1,1.2686993E1,2.3123785E1,0E0,0E0,0E0,8.5775113E-1,5.2041626E-1,0E0,0E0,0E0,8.390501E0,2.6147504E0,1.2378387E0,0E0,0E0,1.36872425E1,0E0,0E0,0E0,0E0,0E0,0E0,0E0,0E0,0E0,0E0,0E0,0E0,0E0],"parents":[2147483647,0,0,1,1,2,2,3,3,4,4,5,5,6,6,7,7,8,8,9,9,10,10,11,11,13,13,16,16,17,17,18,18,19,19,23,23,24,24,25,25,29,29,30,30,34,34,35,35,36,36,39,39],"right_children":[2,4,6,8,10,12,14,16,18,20,22,24,-1,26,-1,-1,28,30,32,34,-1,-1,-1,36,38,40,-1,-1,-1,42,44,-1,-1,-1,46,48,50,-1,-1,52,-1,-1,-1,-1,-1,-1,-1,-1,-1,-1,-1,-1,-1],"split_conditions":[1.8E-1,1E0,1E0,-6E-2,1.4453277E-3,9.45022E-4,1.77575E3,1E0,5.6701316E-3,2.224E1,3.07E0,8.8943244E-4,9.100404E-2,1.4453277E-3,5.4511804E-2,-9.079754E-2,1.068E1,4.22E0,9.4E-1,1.265E1,4.0057834E-2,7.882954E-3,8.283853E-2,8.31E0,3.5206E2,9.45022E-4,-8.287702E-2,4.809531E-2,7.882954E-3,1.38E0,2.112402E-3,-7.62574E-2,-1.9237576E-2,-7.723009E-2,5.0030573E-4,6.114848E-4,4.4471622E-4,7.17799E-2,-6.2479563E-2,2.782E1,7.013106E-2,-5.2521463E-2,-1.7226249E-3,1.961499E-2,7.354994E-2,5.9258725E-2,-5.4667126E-2,-1.9221151E-2,5.9738632E-2,5.2568555E-2,8.7830074E-2,5.4511804E-2,-8.450306E-2],"split_indices":[1,13,13,1,17,17,4,15,17,0,0,17,0,17,0,0,2,0,4,2,0,0,0,5,4,17,0,0,0,4,17,0,0,0,17,17,17,0,0,4,0,0,0,0,0,0,0,0,0,0,0,0,0],"split_type":[0,0,0,0,0,0,0,0,0,0,0,0,0,0,0,0,0,0,0,0,0,0,0,0,0,0,0,0,0,0,0,0,0,0,0,0,0,0,0,0,0,0,0,0,0,0,0,0,0,0,0,0,0],"sum_hessian":[3.5981611E3,1.7974348E3,1.8007263E3,1.7666476E3,3.0787264E1,1.7741243E3,2.6602098E1,1.7520714E3,1.4576199E1,2.0474253E1,1.0313012E1,4.2054066E1,1.7320702E3,2.5243134E1,1.3589636E0,1.7498699E3,2.20158E0,7.9271007E0,6.6490974E0,1.8863726E1,1.6105273E0,1.181602E0,9.13141E0,3.667378E1,5.380289E0,1.6064863E1,9.178271E0,1.019978E0,1.181602E0,2.6763718E0,5.250729E0,4.7180505E0,1.931047E0,1.4085527E1,4.7781987E0,2.789167E0,3.388461E1,3.3888662E0,1.991423E0,1.3014048E1,3.0508158E0,1.2458829E0,1.4304891E0,1.5212349E0,3.729494E0,1.6976601E0,3.0805385E0,1.0903916E0,1.6987753E0,9.559091E0,2.432552E1,1.3589636E0,1.1655084E1],"tree_param":{"num_deleted":"0","num_feature":"18","num_nodes":"53","size_leaf_vector":"1"}},{"base_weights":[2.251006E-4,-1.7020252E0,1.699473E0,-1.7289107E0,-1.5899986E-1,1.7398425E0,-9.5161265E-1,-1.7409629E0,-2.6984128E-1,-1.0021346E0,1.4572613E0,1.3512578E0,8.7425716E-2,-1.0970786E0,5.3061493E-2,-8.722297E-2,6.9679785E-1,5.920788E-1,-1.2417406E0,-1.1864655E0,3.8873207E-2,7.66981E-3,7.976442E-2,1.4791563E0,3.8506603E-1,-7.347778E-1,-7.980054E-2,4.6953164E-2,7.66981E-3,-6.4684737E-1,1.2277102E0,-7.358809E-2,-1.8605573E-2,-7.417843E-2,-2.0778275E-1,6.188585E-1,1.5304339E0,6.937575E-2,-6.0608532E-2,-1.2884231E0,6.782409E-2,-5.1370382E-2,-1.4757849E-3,1.9028606E-2,7.103037E-2,5.7562362E-2,-5.2762426E-2,5.848513E-2,-1.9362526E-2,5.035876E-2,8.4449254E-2,5.3061493E-2,-8.1326656E-2],"categories":[],"categories_nodes":[],"categories_segments":[],"categories_sizes":[],"default_left":[0,0,0,0,0,0,0,0,0,0,0,0,0,0,0,0,0,0,0,0,0,0,0,0,0,0,0,0,0,0,0,0,0,0,0,0,0,0,0,0,0,0,0,0,0,0,0,0,0,0,0,0,0],"id":3,"left_children":[1,3,5,7,9,11,13,15,17,19,21,23,-1,25,-1,-1,27,29,31,33,-1,-1,-1,35,37,39,-1,-1,-1,41,43,-1,-1,-1,45,47,49,-1,-1,51,-1,-1,-1,-1,-1,-1,-1,-1,-1,-1,-1,-1,-1],"loss_changes":[1.0302428E4,7.353955E1,1.9241748E2,3.0281738E1,4.448499E1,3.5546875E0,9.181528E0,1.5997559E1,1.3727734E1,7.9231205E0,1.7765522E0,4.7113037E0,0E0,3.5321388E0,0E0,0E0,2.7701962E-1,7.8006105E0,9.751253E-1,5.4298134E0,0E0,0E0,0E0,7.0215607E-1,1.1845291E1,2.135139E1,0E0,0E0,0E0,8.322966E-1,4.766369E-1,0E0,0E0,0E0,7.8471084E0,2.5489626E0,1.1698151E0,0E0,0E0,1.2769064E1,0E0,0E0,0E0,0E0,0E0,0E0,0E0,0E0,0E0,0E0,0E0,0E0,0E0],"parents":[2147483647,0,0,1,1,2,2,3,3,4,4,5,5,6,6,7,7,8,8,9,9,10,10,11,11,13,13,16,16,17,17,18,18,19,19,23,23,24,24,25,25,29,29,30,30,34,34,35,35,36,36,39,39],"right_children":[2,4,6,8,10,12,14,16,18,20,22,24,-1,26,-1,-1,28,30,32,34,-1,-1,-1,36,38,40,-1,-1,-1,42,44,-1,-1,-1,46,48,50,-1,-1,52,-1,-1,-1,-1,-1,-1,-1,-1,-1,-1,-1,-1,-1],"split_conditions":[1.8E-1,1E0,1E0,-6E-2,1.4453277E-3,9.45022E-4,1.77575E3,1E0,5.6701316E-3,2.224E1,3.07E0,8.8943244E-4,8.7425716E-2,1.4453277E-3,5.3061493E-2,-8.722297E-2,1.068E1,4.22E0,9.4E-1,1.265E1,3.8873207E-2,7.66981E-3,7.976442E-2,8.31E0,3.5206E2,9.45022E-4,-7.980054E-2,4.6953164E-2,7.66981E-3,3E0,2.112402E-3,-7.358809E-2,-1.8605573E-2,-7.417843E-2,5.0030573E-4,3.78E0,4.4471622E-4,6.937575E-2,-6.0608532E-2,2.782E1,6.782409E-2,-5.1370382E-2,-1.4757849E-3,1.9028606E-2,7.103037E-2,5.7562362E-2,-5.2762426E-2,5.848513E-2,-1.9362526E-2,5.035876E-2,8.4449254E-2,5.3061493E-2,-8.1326656E-2],"split_indices":[1,13,13,1,17,17,4,15,17,0,0,17,0,17,0,0,2,0,4,2,0,0,0,5,4,17,0,0,0,6,17,0,0,0,17,4,17,0,0,4,0,0,0,0,0,0,0,0,0,0,0,0,0],"split_type":[0,0,0,0,0,0,0,0,0,0,0,0,0,0,0,0,0,0,0,0,0,0,0,0,0,0,0,0,0,0,0,0,0,0,0,0,0,0,0,0,0,0,0,0,0,0,0,0,0,0,0,0,0],"sum_hessian":[3.5597168E3,1.7782866E3,1.7814303E3,1.7477141E3,3.0572468E1,1.7550488E3,2.6381416E1,1.7332043E3,1.4509768E1,2.0341263E1,1.0231204E1,4.1734283E1,1.7133146E3,2.5027657E1,1.3537601E0,1.731006E3,2.1984546E0,7.897099E0,6.612668E0,1.8734081E1,1.6071814E0,1.1815071E0,9.049697E0,3.6386723E1,5.3475604E0,1.5931596E1,9.096061E0,1.0169475E0,1.1815071E0,2.6717925E0,5.2253065E0,4.6818852E0,1.9307832E0,1.3975573E1,4.758509E0,2.7819555E0,3.3604767E1,3.3661919E0,1.9813685E0,1.2900251E1,3.0313435E0,1.2419242E0,1.4298683E0,1.5205405E0,3.704766E0,1.689961E0,3.0685482E0,1.6926372E0,1.0893182E0,9.524355E0,2.4080414E1,1.3537601E0,1.1546492E1],"tree_param":{"num_deleted":"0","num_feature":"18","num_nodes":"53","size_leaf_vector":"1"}},{"base_weights":[2.892278E-4,-1.6403849E0,1.638207E0,-1.6664711E0,-1.5061738E-1,1.6771915E0,-9.134852E-1,-1.67817E0,-2.6141652E-1,-9.615216E-1,1.4058992E0,1.3009799E0,1.6856195E0,-1.0555053E0,5.1692076E-2,-8.407992E-2,6.799578E-1,5.6931925E-1,-1.1995217E0,-1.140702E0,3.7741285E-2,7.4625583E-3,7.700977E-2,1.424433E0,3.698053E-1,1.0755811E0,8.436953E-2,-7.0319575E-1,-7.704401E-2,4.586438E-2,7.4625583E-3,-6.299421E-1,1.1874585E0,-7.1162626E-2,-1.7996455E-2,-7.14167E-2,-1.9747469E-1,5.997694E-1,1.4736983E0,6.717195E-2,-5.8864523E-2,7.020395E-2,-2.0135518E-3,-1.2396494E0,6.5702766E-2,-5.0140053E-2,-1.3734505E-3,1.846179E-2,6.872844E-2,5.5972666E-2,-5.097592E-2,-1.8860811E-2,5.6840625E-2,4.8293427E-2,8.145453E-2,5.1692076E-2,-7.849097E-2],"categories":[],"categories_nodes":[],"categories_segments":[],"categories_sizes":[],"default_left":[0,0,0,0,0,0,0,0,0,0,0,0,0,0,0,0,0,0,0,0,0,0,0,0,0,0,0,0,0,0,0,0,0,0,0,0,0,0,0,0,0,0,0,0,0,0,0,0,0,0,0,0,0,0,0,0,0],"id":4,"left_children":[1,3,5,7,9,11,13,15,17,19,21,23,25,27,-1,-1,29,31,33,35,-1,-1,-1,37,39,41,-1,43,-1,-1,-1,45,47,-1,-1,-1,49,51,53,-1,-1,-1,-1,55,-1,-1,-1,-1,-1,-1,-1,-1,-1,-1,-1,-1,-1],"loss_changes":[9.437533E3,6.793262E1,1.7635547E2,2.7902832E1,4.0848286E1,3.296875E0,8.584118E0,1.4966797E1,1.2701593E1,7.370825E0,1.6475315E0,4.3379974E0,1.1230469E-2,3.3191605E0,0E0,0E0,2.6541793E-1,7.3139925E0,9.087267E-1,5.025938E0,0E0,0E0,0E0,6.1989594E-1,1.1077917E1,2.8609161E0,0E0,1.9763372E1,0E0,0E0,0E0,7.9595935E-1,4.4033623E-1,0E0,0E0,0E0,7.347079E0,2.408374E0,1.1285782E0,0E0,0E0,0E0,0E0,1.1945648E1,0E0,0E0,0E0,0E0,0E0,0E0,0E0,0E0,0E0,0E0,0E0,0E0,0E0],"parents":[2147483647,0,0,1,1,2,2,3,3,4,4,5,5,6,6,7,7,8,8,9,9,10,10,11,11,12,12,13,13,16,16,17,17,18,18,19,19,23,23,24,24,25,25,27,27,31,31,32,32,36,36,37,37,38,38,43,43],"right_children":[2,4,6,8,10,12,14,16,18,20,22,24,26,28,-1,-1,30,32,34,36,-1,-1,-1,38,40,42,-1,44,-1,-1,-1,46,48,-1,-1,-1,50,52,54,-1,-1,-1,-1,56,-1,-1,-1,-1,-1,-1,-1,-1,-1,-1,-1,-1,-1],"split_conditions":[1.8E-1,1E0,1E0,-6E-2,1.4453277E-3,9.45022E-4,1.77575E3,1E0,5.6701316E-3,2.224E1,3.07E0,8.8943244E-4,3.9E-1,1.4453277E-3,5.1692076E-2,-8.407992E-2,1.068E1,4.22E0,9.4E-1,1.265E1,3.7741285E-2,7.4625583E-3,7.700977E-2,8.31E0,3.5206E2,5.6701316E-3,8.436953E-2,9.45022E-4,-7.704401E-2,4.586438E-2,7.4625583E-3,1.38E0,2.112402E-3,-7.1162626E-2,-1.7996455E-2,-7.14167E-2,5.0030573E-4,6.114848E-4,4.4471622E-4,6.717195E-2,-5.8864523E-2,7.020395E-2,-2.0135518E-3,2.782E1,6.5702766E-2,-5.0140053E-2,-1.3734505E-3,1.846179E-2,6.872844E-2,5.5972666E-2,-5.097592E-2,-1.8860811E-2,5.6840625E-2,4.8293427E-2,8.145453E-2,5.1692076E-2,-7.849097E-2],"split_indices":[1,13,13,1,17,17,4,15,17,0,0,17,1,17,0,0,2,0,4,2,0,0,0,5,4,17,0,17,0,0,0,4,17,0,0,0,17,17,17,0,0,0,0,4,0,0,0,0,0,0,0,0,0,0,0,0,0],"split_type":[0,0,0,0,0,0,0,0,0,0,0,0,0,0,0,0,0,0,0,0,0,0,0,0,0,0,0,0,0,0,0,0,0,0,0,0,0,0,0,0,0,0,0,0,0,0,0,0,0,0,0,0,0,0,0,0,0],"sum_hessian":[3.5099155E3,1.7534817E3,1.756434E3,1.7231896E3,3.0292128E1,1.7303407E3,2.6093246E1,1.7087675E3,1.4422064E1,2.0167599E1,1.0124529E1,4.1318333E1,1.6890223E3,2.474644E1,1.3468047E0,1.7065732E3,2.194253E0,7.8572345E0,6.564829E0,1.8564882E1,1.6027161E0,1.1813796E0,8.94315E0,3.6013966E1,5.3043694E0,6.6506166E0,1.6823717E3,1.5757573E1,8.988869E0,1.0128733E0,1.1813796E0,2.6659298E0,5.1913047E0,4.6346407E0,1.9301884E0,1.3832448E1,4.7324357E0,2.7728484E0,3.3241116E1,3.3363457E0,1.968024E0,4.938469E0,1.7121476E0,1.2751898E1,3.005675E0,1.2363204E0,1.4296094E0,1.5195886E0,3.6717162E0,1.6797132E0,3.0527222E0,1.0891244E0,1.6837238E0,9.478991E0,2.3762125E1,1.3468047E0,1.1405093E1],"tree_param":{"num_deleted":"0","num_feature":"18","num_nodes":"57","size_leaf_vector":"1"}},{"base_weights":[3.7081284E-4,-1.5857378E0,1.5839678E0,-1.6111535E0,-1.4287561E-1,1.6217431E0,-8.788818E-1,-1.6225659E0,-2.536119E-1,-9.2417395E-1,1.3592317E0,1.2552725E0,8.149965E-2,-1.0179247E0,5.039657E-2,-1.6259432E0,6.637669E-1,-7.2171396E-1,6.335826E-2,-1.0987594E0,3.6658224E-2,7.261019E-3,7.4526645E-2,1.3747456E0,3.5569713E-1,-6.7442465E-1,-7.455938E-2,-1.3987747E0,-8.1620485E-2,4.4825148E-2,7.261019E-3,-7.232671E-2,8.619268E-2,-6.890134E-2,-1.8779074E-1,9.2711824E-1,1.496011E0,6.514314E-2,-5.7234164E-2,-1.1955085E0,6.37443E-2,-7.5799294E-2,-7.606546E-3,-4.140167E-2,3.3312853E-2,5.447922E-2,-4.9295105E-2,7.373678E-2,7.2213234E-3,2.9086664E-2,7.878439E-2,5.039657E-2,-7.594382E-2],"categories":[],"categories_nodes":[],"categories_segments":[],"categories_sizes":[],"default_left":[0,0,0,0,0,0,0,0,0,0,0,0,0,0,0,0,0,0,0,0,0,0,0,0,0,0,0,0,0,0,0,0,0,0,0,0,0,0,0,0,0,0,0,0,0,0,0,0,0,0,0,0,0],"id":5,"left_children":[1,3,5,7,9,11,13,15,17,19,21,23,-1,25,-1,27,29,31,-1,33,-1,-1,-1,35,37,39,-1,41,-1,-1,-1,-1,43,-1,45,47,49,-1,-1,51,-1,-1,-1,-1,-1,-1,-1,-1,-1,-1,-1,-1,-1],"loss_changes":[8.672248E3,6.3026367E1,1.6216113E2,2.5848633E1,3.7586113E1,3.0996094E0,8.043203E0,1.4056641E1,1.1817535E1,6.870096E0,1.5364456E0,4.0056458E0,0E0,3.1250153E0,0E0,1.821289E-1,2.5468063E-1,7.355636E0,0E0,4.6670113E0,0E0,0E0,0E0,5.980072E-1,1.0376214E1,1.8333755E1,0E0,7.578781E0,0E0,0E0,0E0,0E0,4.148874E0,0E0,6.8860583E0,4.255149E0,1.0606995E0,0E0,0E0,1.1202898E1,0E0,0E0,0E0,0E0,0E0,0E0,0E0,0E0,0E0,0E0,0E0,0E0,0E0],"parents":[2147483647,0,0,1,1,2,2,3,3,4,4,5,5,6,6,7,7,8,8,9,9,10,10,11,11,13,13,15,15,16,16,17,17,19,19,23,23,24,24,25,25,27,27,32,32,34,34,35,35,36,36,39,39],"right_children":[2,4,6,8,10,12,14,16,18,20,22,24,-1,26,-1,28,30,32,-1,34,-1,-1,-1,36,38,40,-1,42,-1,-1,-1,-1,44,-1,46,48,50,-1,-1,52,-1,-1,-1,-1,-1,-1,-1,-1,-1,-1,-1,-1,-1],"split_conditions":[1.8E-1,1E0,1E0,-6E-2,1.4453277E-3,9.45022E-4,1.77575E3,1E0,1.038E1,2.224E1,3.07E0,8.8943244E-4,8.149965E-2,1.4453277E-3,5.039657E-2,9.45022E-4,1.068E1,9.4E-1,6.335826E-2,1.265E1,3.6658224E-2,7.261019E-3,7.4526645E-2,4.4471622E-4,3.5206E2,9.45022E-4,-7.455938E-2,8.8943244E-4,-8.1620485E-2,4.4825148E-2,7.261019E-3,-7.232671E-2,2.57E0,-6.890134E-2,5.0030573E-4,2.42248E3,8.31E0,6.514314E-2,-5.7234164E-2,2.782E1,6.37443E-2,-7.5799294E-2,-7.606546E-3,-4.140167E-2,3.3312853E-2,5.447922E-2,-4.9295105E-2,7.373678E-2,7.2213234E-3,2.9086664E-2,7.878439E-2,5.039657E-2,-7.594382E-2],"split_indices":[1,13,13,1,17,17,4,15,0,0,0,17,0,17,0,17,2,4,0,2,0,0,0,17,4,17,0,17,0,0,0,0,0,0,17,4,5,0,0,4,0,0,0,0,0,0,0,0,0,0,0,0,0],"split_type":[0,0,0,0,0,0,0,0,0,0,0,0,0,0,0,0,0,0,0,0,0,0,0,0,0,0,0,0,0,0,0,0,0,0,0,0,0,0,0,0,0,0,0,0,0,0,0,0,0,0,0,0,0],"sum_hessian":[3.450662E3,1.7239633E3,1.7266989E3,1.6940071E3,2.9956144E1,1.700951E3,2.574771E1,1.6796913E3,1.4315815E1,1.9959343E1,9.996801E0,4.082029E1,1.6601309E3,2.4409437E1,1.3382725E0,1.6775022E3,2.1890683E0,1.1348215E1,2.9676006E0,1.8362099E1,1.5972452E0,1.1812222E0,8.815578E0,3.5568233E1,5.252054E0,1.5548905E1,8.860531E0,5.2445045E1,1.6250571E3,1.0078462E0,1.1812222E0,5.565029E0,5.7831855E0,1.3661356E1,4.7007422E0,9.424588E0,2.6143646E1,3.3002841E0,1.9517703E0,1.2574287E1,2.9746177E0,4.774038E1,4.704669E0,2.079014E0,3.7041714E0,1.667196E0,3.0335464E0,5.0247746E0,4.399813E0,2.7611446E0,2.3382504E1,1.3382725E0,1.1236014E1],"tree_param":{"num_deleted":"0","num_feature":"18","num_nodes":"53","size_leaf_vector":"1"}},{"base_weights":[4.231028E-4,-1.53701E0,1.5356094E0,-1.5618634E0,-1.356834E-1,1.5723226E0,-8.4729576E-1,-1.5730628E0,-2.4415062E-1,-8.896479E-1,1.3165948E0,1.2138207E0,1.5804415E0,-9.837608E-1,4.9168717E-2,-1.5764033E0,6.4818716E-1,5.371542E-1,-1.1306765E0,-1.0601085E0,3.562058E-2,7.326702E-2,1.07556125E-2,1.3297162E0,3.4260365E-1,9.8605305E-1,7.911005E-2,-6.48059E-1,-7.2307624E-2,-1.3532045E0,-7.913875E-2,4.3832E-2,7.065024E-3,-5.865627E-1,1.1201E0,-6.681895E-2,-1.7877178E-2,-6.6596806E-2,-1.7866474E-1,8.9379007E-1,1.4491179E0,6.3267894E-2,-5.5705823E-2,6.57975E-2,-4.5490353E-3,-1.1553279E0,6.192934E-2,-7.342914E-2,-7.3035224E-3,-4.7830142E-2,-2.9426994E-4,1.7456254E-2,6.492543E-2,5.307284E-2,-4.7709193E-2,7.1328655E-2,6.932682E-3,2.8067026E-2,7.6389536E-2,4.9168717E-2,-7.364291E-2],"categories":[],"categories_nodes":[],"categories_segments":[],"categories_sizes":[],"default_left":[0,0,0,0,0,0,0,0,0,0,0,0,0,0,0,0,0,0,0,0,0,0,0,0,0,0,0,0,0,0,0,0,0,0,0,0,0,0,0,0,0,0,0,0,0,0,0,0,0,0,0,0,0,0,0,0,0,0,0,0,0],"id":6,"left_children":[1,3,5,7,9,11,13,15,17,19,21,23,25,27,-1,29,31,33,35,37,-1,-1,-1,39,41,43,-1,45,-1,47,-1,-1,-1,49,51,-1,-1,-1,53,55,57,-1,-1,-1,-1,59,-1,-1,-1,-1,-1,-1,-1,-1,-1,-1,-1,-1,-1,-1,-1],"loss_changes":[7.9908833E3,5.8701416E1,1.4953369E2,2.4143066E1,3.4648064E1,2.9384766E0,7.551182E0,1.3248291E1,1.1128801E1,6.414139E0,1.4626865E0,3.7108765E0,1.4282227E-1,2.9474068E0,0E0,1.9873047E-1,2.4471962E-1,6.3902807E0,7.0509243E-1,4.3458405E0,0E0,0E0,0E0,5.8236694E-1,9.73279E0,2.7704935E0,0E0,1.7041239E1,0E0,7.1070175E0,0E0,0E0,0E0,7.777585E-1,3.865838E-1,0E0,0E0,0E0,6.460235E0,3.972456E0,1.0077019E0,0E0,0E0,0E0,0E0,1.0529421E1,0E0,0E0,0E0,0E0,0E0,0E0,0E0,0E0,0E0,0E0,0E0,0E0,0E0,0E0,0E0],"parents":[2147483647,0,0,1,1,2,2,3,3,4,4,5,5,6,6,7,7,8,8,9,9,10,10,11,11,12,12,13,13,15,15,16,16,17,17,18,18,19,19,23,23,24,24,25,25,27,27,29,29,33,33,34,34,38,38,39,39,40,40,45,45],"right_children":[2,4,6,8,10,12,14,16,18,20,22,24,26,28,-1,30,32,34,36,38,-1,-1,-1,40,42,44,-1,46,-1,48,-1,-1,-1,50,52,-1,-1,-1,54,56,58,-1,-1,-1,-1,60,-1,-1,-1,-1,-1,-1,-1,-1,-1,-1,-1,-1,-1,-1,-1],"split_conditions":[1.8E-1,1E0,1E0,-6E-2,1.4453277E-3,9.45022E-4,1.77575E3,1E0,5.6701316E-3,2.224E1,1E3,8.8943244E-4,3.9E-1,1.4453277E-3,4.9168717E-2,9.45022E-4,1.068E1,4.22E0,9.4E-1,1.265E1,3.562058E-2,7.326702E-2,1.07556125E-2,4.4471622E-4,3.5206E2,5.6701316E-3,7.911005E-2,9.45022E-4,-7.2307624E-2,8.8943244E-4,-7.913875E-2,4.3832E-2,7.065024E-3,3E0,2.112402E-3,-6.681895E-2,-1.7877178E-2,-6.6596806E-2,5.0030573E-4,2.42248E3,8.31E0,6.3267894E-2,-5.5705823E-2,6.57975E-2,-4.5490353E-3,2.782E1,6.192934E-2,-7.342914E-2,-7.3035224E-3,-4.7830142E-2,-2.9426994E-4,1.7456254E-2,6.492543E-2,5.307284E-2,-4.7709193E-2,7.1328655E-2,6.932682E-3,2.8067026E-2,7.6389536E-2,4.9168717E-2,-7.364291E-2],"split_indices":[1,13,13,1,17,17,4,15,17,0,2,17,1,17,0,17,2,0,4,2,0,0,0,17,4,17,0,17,0,17,0,0,0,6,17,0,0,0,17,4,5,0,0,0,0,4,0,0,0,0,0,0,0,0,0,0,0,0,0,0,0],"split_type":[0,0,0,0,0,0,0,0,0,0,0,0,0,0,0,0,0,0,0,0,0,0,0,0,0,0,0,0,0,0,0,0,0,0,0,0,0,0,0,0,0,0,0,0,0,0,0,0,0,0,0,0,0,0,0,0,0,0,0,0,0],"sum_hessian":[3.3836143E3,1.6905695E3,1.6930448E3,1.6609961E3,2.9573322E1,1.667691E3,2.5353825E1,1.6468059E3,1.4190211E1,1.972191E1,9.851412E0,4.0264095E1,1.6274269E3,2.4025496E1,1.3283279E0,1.6446229E3,2.1829906E0,7.752203E0,6.438009E0,1.8131037E1,1.5908749E0,8.3883095E0,1.4631023E0,3.5072258E1,5.1918373E0,6.4604297E0,1.6209666E3,1.5311039E1,8.7144575E0,5.1568085E1,1.5930548E3,1.0019531E0,1.1810374E0,2.6458056E0,5.106397E0,4.509635E0,1.9283739E0,1.3466906E1,4.664131E0,9.3654175E0,2.570684E1,3.2588778E0,1.9329594E0,4.7757745E0,1.684655E0,1.237213E1,2.9389086E0,4.6871506E1,4.69658E0,1.2205874E0,1.4252182E0,1.5152555E0,3.5911417E0,1.6526681E0,3.011463E0,4.9698224E0,4.3955946E0,2.7548666E0,2.2951973E1,1.3283279E0,1.1043802E1],"tree_param":{"num_deleted":"0","num_feature":"18","num_nodes":"61","size_leaf_vector":"1"}},{"base_weights":[4.8487706E-4,-1.4933139E0,1.4923109E0,-1.5177102E0,-1.2877555E-1,1.5280877E0,-8.1831014E-1,-1.5287272E0,-2.3743479E-1,-8.575739E-1,1.2765038E0,1.1757852E0,1.53612E0,-9.525401E-1,4.8002906E-2,-1.5320433E0,3.1659164E-2,5.1804173E-1,-1.0965966E0,-1.0243095E0,3.4625217E-2,5.804856E-3,7.039728E-2,1.2884424E0,3.3040774E-1,9.559638E-1,7.6892495E-2,-6.2376523E-1,-7.025657E-2,-1.3114783E0,-7.691816E-2,-5.719726E-1,1.0872145E0,-6.4954124E-2,-1.7294295E-2,-6.447381E-2,-1.7003858E-1,8.6261857E-1,1.4064858E0,6.1528027E-2,-5.4269325E-2,6.404009E-2,-4.403442E-3,-1.1185566E0,6.024132E-2,-7.127559E-2,-7.012391E-3,-4.671836E-2,-2.8562706E-4,1.6941246E-2,6.3105054E-2,5.1745452E-2,-4.62088E-2,6.91304E-2,6.655551E-3,2.7090052E-2,7.423009E-2,4.8002906E-2,-7.15537E-2],"categories":[],"categories_nodes":[],"categories_segments":[],"categories_sizes":[],"default_left":[0,0,0,0,0,0,0,0,0,0,0,0,0,0,0,0,0,0,0,0,0,0,0,0,0,0,0,0,0,0,0,0,0,0,0,0,0,0,0,0,0,0,0,0,0,0,0,0,0,0,0,0,0,0,0,0,0,0,0],"id":7,"left_children":[1,3,5,7,9,11,13,15,17,19,21,23,25,27,-1,29,-1,31,33,35,-1,-1,-1,37,39,41,-1,43,-1,45,-1,47,49,-1,-1,-1,51,53,55,-1,-1,-1,-1,57,-1,-1,-1,-1,-1,-1,-1,-1,-1,-1,-1,-1,-1,-1,-1],"loss_changes":[7.3812495E3,5.4899414E1,1.3824634E2,2.2569336E1,3.1986258E1,2.8129883E0,7.101774E0,1.2525635E1,1.0340132E1,5.99732E0,1.4689579E0,3.445572E0,1.2841797E-1,2.7843952E0,0E0,2.2631836E-1,0E0,6.0133176E0,6.702223E-1,4.0567055E0,0E0,0E0,0E0,5.723686E-1,9.141311E0,2.6147904E0,0E0,1.5868181E1,0E0,6.6939087E0,0E0,7.408836E-1,3.6471367E-1,0E0,0E0,0E0,6.0662584E0,3.7217293E0,9.671936E-1,0E0,0E0,0E0,0E0,9.915937E0,0E0,0E0,0E0,0E0,0E0,0E0,0E0,0E0,0E0,0E0,0E0,0E0,0E0,0E0,0E0],"parents":[2147483647,0,0,1,1,2,2,3,3,4,4,5,5,6,6,7,7,8,8,9,9,10,10,11,11,12,12,13,13,15,15,17,17,18,18,19,19,23,23,24,24,25,25,27,27,29,29,31,31,32,32,36,36,37,37,38,38,43,43],"right_children":[2,4,6,8,10,12,14,16,18,20,22,24,26,28,-1,30,-1,32,34,36,-1,-1,-1,38,40,42,-1,44,-1,46,-1,48,50,-1,-1,-1,52,54,56,-1,-1,-1,-1,58,-1,-1,-1,-1,-1,-1,-1,-1,-1,-1,-1,-1,-1,-1,-1],"split_conditions":[1.8E-1,1E0,1E0,-6E-2,1.4453277E-3,9.45022E-4,1.77575E3,1E0,5.6701316E-3,2.224E1,3.07E0,8.8943244E-4,3.9E-1,1.4453277E-3,4.8002906E-2,9.45022E-4,3.1659164E-2,4.22E0,9.4E-1,1.265E1,3.4625217E-2,5.804856E-3,7.039728E-2,4.4471622E-4,3.5206E2,5.6701316E-3,7.6892495E-2,9.45022E-4,-7.025657E-2,8.8943244E-4,-7.691816E-2,3E0,2.112402E-3,-6.4954124E-2,-1.7294295E-2,-6.447381E-2,5.0030573E-4,2.42248E3,8.31E0,6.1528027E-2,-5.4269325E-2,6.404009E-2,-4.403442E-3,2.782E1,6.024132E-2,-7.127559E-2,-7.012391E-3,-4.671836E-2,-2.8562706E-4,1.6941246E-2,6.3105054E-2,5.1745452E-2,-4.62088E-2,6.91304E-2,6.655551E-3,2.7090052E-2,7.423009E-2,4.8002906E-2,-7.15537E-2],"split_indices":[1,13,13,1,17,17,4,15,17,0,0,17,1,17,0,17,0,0,4,2,0,0,0,17,4,17,0,17,0,17,0,6,17,0,0,0,17,4,5,0,0,0,0,4,0,0,0,0,0,0,0,0,0,0,0,0,0,0,0],"split_type":[0,0,0,0,0,0,0,0,0,0,0,0,0,0,0,0,0,0,0,0,0,0,0,0,0,0,0,0,0,0,0,0,0,0,0,0,0,0,0,0,0,0,0,0,0,0,0,0,0,0,0,0,0,0,0,0,0,0,0],"sum_hessian":[3.3102234E3,1.6540176E3,1.6562058E3,1.6248549E3,2.916267E1,1.6312863E3,2.491962E1,1.6107996E3,1.4055309E1,1.9460117E1,9.702552E0,3.964863E1,1.5916376E3,2.3602495E1,1.3171254E0,1.6086234E3,2.1761038E0,7.6902084E0,6.365101E0,1.7876413E1,1.5837039E0,1.1788222E0,8.52373E0,3.4523796E1,5.1248317E0,6.377431E0,1.5852601E3,1.5048822E1,8.553674E0,5.061613E1,1.5580073E3,2.636386E0,5.053823E0,4.4376764E0,1.9274246E0,1.3253168E1,4.6232452E0,9.296331E0,2.5227463E1,3.212915E0,1.9119166E0,4.691077E0,1.6863538E0,1.2149605E1,2.8992174E0,4.5927425E1,4.688705E0,1.2111855E0,1.4252005E0,1.5136936E0,3.5401292E0,1.6363711E0,2.9868739E0,4.904889E0,4.3914423E0,2.7477517E0,2.2479712E1,1.3171254E0,1.08324795E1],"tree_param":{"num_deleted":"0","num_feature":"18","num_nodes":"59","size_leaf_vector":"1"}},{"base_weights":[5.3853646E-4,-1.4539552E0,1.4533312E0,-1.4779615E0,-1.225022E-1,1.4882793E0,-7.9157925E-1,-1.4888372E0,-2.3114604E-1,-8.27643E-1,1.2401875E0,1.1407073E0,1.4962628E0,-9.2387074E-1,4.689412E-2,-1.4921292E0,3.0640572E-2,5.000087E-1,-1.0646609E0,-9.9099517E-1,3.366932E-2,6.953674E-2,8.333207E-3,1.2504115E0,3.1900927E-1,9.2771906E-1,7.489867E-2,-6.012665E-1,-6.83796E-2,-1.2730607E0,-7.492173E-2,-5.5796343E-1,1.0563564E0,-6.322851E-2,-1.6732058E-2,-6.2508024E-2,-1.6186236E-1,8.333604E-1,1.3675233E0,5.990798E-2,-5.291576E-2,6.2410176E-2,-4.2625754E-3,-1.0847377E0,5.8666047E-2,-6.930842E-2,-6.732707E-3,-4.578466E-2,-1.4673053E-4,1.6442778E-2,6.1415013E-2,5.0489873E-2,-4.4785734E-2,6.711435E-2,6.389463E-3,2.6153082E-2,7.22734E-2,4.689412E-2,-6.964762E-2],"categories":[],"categories_nodes":[],"categories_segments":[],"categories_sizes":[],"default_left":[0,0,0,0,0,0,0,0,0,0,0,0,0,0,0,0,0,0,0,0,0,0,0,0,0,0,0,0,0,0,0,0,0,0,0,0,0,0,0,0,0,0,0,0,0,0,0,0,0,0,0,0,0,0,0,0,0,0,0],"id":8,"left_children":[1,3,5,7,9,11,13,15,17,19,21,23,25,27,-1,29,-1,31,33,35,-1,-1,-1,37,39,41,-1,43,-1,45,-1,47,49,-1,-1,-1,51,53,55,-1,-1,-1,-1,57,-1,-1,-1,-1,-1,-1,-1,-1,-1,-1,-1,-1,-1,-1,-1],"loss_changes":[6.8331035E3,5.146924E1,1.2810376E2,2.1178467E1,2.957404E1,2.7148438E0,6.6897774E0,1.1799805E1,9.61821E0,5.614953E0,1.470253E0,3.2054672E0,1.2207031E-1,2.6343288E0,0E0,2.626953E-1,0E0,5.66463E0,6.4017105E-1,3.7949772E0,0E0,0E0,0E0,5.665169E-1,8.596308E0,2.4728146E0,0E0,1.4799852E1,0E0,6.3293E0,0E0,7.172506E-1,3.461709E-1,0E0,0E0,0E0,5.701174E0,3.497902E0,9.3644714E-1,0E0,0E0,0E0,0E0,9.354784E0,0E0,0E0,0E0,0E0,0E0,0E0,0E0,0E0,0E0,0E0,0E0,0E0,0E0,0E0,0E0],"parents":[2147483647,0,0,1,1,2,2,3,3,4,4,5,5,6,6,7,7,8,8,9,9,10,10,11,11,12,12,13,13,15,15,17,17,18,18,19,19,23,23,24,24,25,25,27,27,29,29,31,31,32,32,36,36,37,37,38,38,43,43],"right_children":[2,4,6,8,10,12,14,16,18,20,22,24,26,28,-1,30,-1,32,34,36,-1,-1,-1,38,40,42,-1,44,-1,46,-1,48,50,-1,-1,-1,52,54,56,-1,-1,-1,-1,58,-1,-1,-1,-1,-1,-1,-1,-1,-1,-1,-1,-1,-1,-1,-1],"split_conditions":[1.8E-1,1E0,1E0,-6E-2,1.4453277E-3,9.45022E-4,1.77575E3,1E0,5.6701316E-3,2.224E1,1.234E1,8.8943244E-4,3.9E-1,1.4453277E-3,4.689412E-2,9.45022E-4,3.0640572E-2,4.22E0,9.4E-1,1.265E1,3.366932E-2,6.953674E-2,8.333207E-3,4.4471622E-4,3.5206E2,5.6701316E-3,7.489867E-2,9.45022E-4,-6.83796E-2,8.8943244E-4,-7.492173E-2,1.38E0,2.112402E-3,-6.322851E-2,-1.6732058E-2,-6.2508024E-2,5.0030573E-4,2.42248E3,8.31E0,5.990798E-2,-5.291576E-2,6.2410176E-2,-4.2625754E-3,2.782E1,5.8666047E-2,-6.930842E-2,-6.732707E-3,-4.578466E-2,-1.4673053E-4,1.6442778E-2,6.1415013E-2,5.0489873E-2,-4.4785734E-2,6.711435E-2,6.389463E-3,2.6153082E-2,7.22734E-2,4.689412E-2,-6.964762E-2],"split_indices":[1,13,13,1,17,17,4,15,17,0,4,17,1,17,0,17,0,0,4,2,0,0,0,17,4,17,0,17,0,17,0,4,17,0,0,0,17,4,5,0,0,0,0,4,0,0,0,0,0,0,0,0,0,0,0,0,0,0,0],"split_type":[0,0,0,0,0,0,0,0,0,0,0,0,0,0,0,0,0,0,0,0,0,0,0,0,0,0,0,0,0,0,0,0,0,0,0,0,0,0,0,0,0,0,0,0,0,0,0,0,0,0,0,0,0,0,0,0,0,0,0],"sum_hessian":[3.2317207E3,1.6149144E3,1.6168062E3,1.5862048E3,2.8709608E1,1.5923539E3,2.445223E1,1.572296E3,1.390884E1,1.9178232E1,9.531375E0,3.89846E1,1.5533693E3,2.314742E1,1.304809E0,1.5701266E3,2.1694329E0,7.622524E0,6.2863164E0,1.760241E1,1.5758233E0,8.099977E0,1.4313984E0,3.393255E1,5.0520496E0,6.289284E0,1.5470801E3,1.4766559E1,8.380863E0,4.960432E1,1.5205223E3,2.6259718E0,4.996552E0,4.3601017E0,1.9262147E0,1.3023736E1,4.578673E0,9.2188635E0,2.4713686E1,3.1631093E0,1.8889403E0,4.6013002E0,1.6879841E0,1.1910407E1,2.856151E0,4.4923275E1,4.6810455E0,1.2016602E0,1.4243116E0,1.511961E0,3.484591E0,1.6185278E0,2.960145E0,4.831501E0,4.3873625E0,2.7399092E0,2.1973776E1,1.304809E0,1.0605598E1],"tree_param":{"num_deleted":"0","num_feature":"18","num_nodes":"59","size_leaf_vector":"1"}},{"base_weights":[5.9283536E-4,-1.4183131E0,1.4180863E0,-1.4420112E0,-1.1642639E-1,1.4522985E0,-7.668134E-1,-1.4527814E0,-2.2523548E-1,-7.995941E-1,1.2055337E0,1.1082023E0,1.4602662E0,-8.974247E-1,4.5837823E-2,-1.4560589E0,2.9663345E-2,-6.371696E-1,5.666364E-2,-9.598556E-1,3.275029E-2,4.480356E-3,6.6922575E-2,1.2151951E0,3.0832243E-1,9.011166E-1,7.3098324E-2,-5.803307E-1,-6.665441E-2,-1.2375059E0,-7.3119126E-2,-6.5477446E-2,8.223116E-2,-6.0679026E-2,-1.5409225E-1,8.058071E-1,1.3317382E0,5.839441E-2,-5.1637262E-2,6.08929E-2,-4.1262717E-3,-1.0534893E0,5.719127E-2,-6.750252E-2,-6.464018E-3,-3.8395554E-2,3.1074503E-2,4.9299773E-2,-4.343287E-2,6.5257326E-2,6.1339624E-3,2.5253719E-2,7.049247E-2,4.5837823E-2,-6.790086E-2],"categories":[],"categories_nodes":[],"categories_segments":[],"categories_sizes":[],"default_left":[0,0,0,0,0,0,0,0,0,0,0,0,0,0,0,0,0,0,0,0,0,0,0,0,0,0,0,0,0,0,0,0,0,0,0,0,0,0,0,0,0,0,0,0,0,0,0,0,0,0,0,0,0,0,0],"id":9,"left_children":[1,3,5,7,9,11,13,15,17,19,21,23,25,27,-1,29,-1,31,-1,33,-1,-1,-1,35,37,39,-1,41,-1,43,-1,-1,45,-1,47,49,51,-1,-1,-1,-1,53,-1,-1,-1,-1,-1,-1,-1,-1,-1,-1,-1,-1,-1],"loss_changes":[6.338044E3,4.841919E1,1.1895044E2,1.9940918E1,2.7372805E1,2.6381836E0,6.310811E0,1.1143066E1,8.978019E0,5.263076E0,1.4169874E0,2.9870872E0,1.2207031E-1,2.4958E0,0E0,3.0615234E-1,0E0,5.8930364E0,0E0,3.5568924E0,0E0,0E0,0E0,5.637131E-1,8.093046E0,2.342801E0,0E0,1.3823848E1,0E0,6.0050583E0,0E0,0E0,3.55758E0,0E0,5.362373E0,3.2968545E0,9.133606E-1,0E0,0E0,0E0,0E0,8.839588E0,0E0,0E0,0E0,0E0,0E0,0E0,0E0,0E0,0E0,0E0,0E0,0E0,0E0],"parents":[2147483647,0,0,1,1,2,2,3,3,4,4,5,5,6,6,7,7,8,8,9,9,10,10,11,11,12,12,13,13,15,15,17,17,19,19,23,23,24,24,25,25,27,27,29,29,32,32,34,34,35,35,36,36,41,41],"right_children":[2,4,6,8,10,12,14,16,18,20,22,24,26,28,-1,30,-1,32,-1,34,-1,-1,-1,36,38,40,-1,42,-1,44,-1,-1,46,-1,48,50,52,-1,-1,-1,-1,54,-1,-1,-1,-1,-1,-1,-1,-1,-1,-1,-1,-1,-1],"split_conditions":[1.8E-1,1E0,1E0,-6E-2,1.4453277E-3,9.45022E-4,1.77575E3,1E0,1.038E1,2.224E1,3.07E0,8.8943244E-4,3.9E-1,1.4453277E-3,4.5837823E-2,9.45022E-4,2.9663345E-2,9.4E-1,5.666364E-2,1.265E1,3.275029E-2,4.480356E-3,6.6922575E-2,4.4471622E-4,3.5206E2,5.6701316E-3,7.3098324E-2,9.45022E-4,-6.665441E-2,8.8943244E-4,-7.3119126E-2,-6.5477446E-2,2.57E0,-6.0679026E-2,5.0030573E-4,2.42248E3,8.31E0,5.839441E-2,-5.1637262E-2,6.08929E-2,-4.1262717E-3,2.782E1,5.719127E-2,-6.750252E-2,-6.464018E-3,-3.8395554E-2,3.1074503E-2,4.9299773E-2,-4.343287E-2,6.5257326E-2,6.1339624E-3,2.5253719E-2,7.049247E-2,4.5837823E-2,-6.790086E-2],"split_indices":[1,13,13,1,17,17,4,15,0,0,0,17,1,17,0,17,0,4,0,2,0,0,0,17,4,17,0,17,0,17,0,0,0,0,17,4,5,0,0,0,0,4,0,0,0,0,0,0,0,0,0,0,0,0,0],"split_type":[0,0,0,0,0,0,0,0,0,0,0,0,0,0,0,0,0,0,0,0,0,0,0,0,0,0,0,0,0,0,0,0,0,0,0,0,0,0,0,0,0,0,0,0,0,0,0,0,0,0,0,0,0,0,0],"sum_hessian":[3.1492332E3,1.5738322E3,1.575401E3,1.5455903E3,2.8241802E1,1.551443E3,2.395798E1,1.5318374E3,1.3752851E1,1.8880045E1,9.361758E0,3.828147E1,1.5131616E3,2.2666466E1,1.2915125E0,1.5296754E3,2.1619895E0,1.0960367E1,2.7924826E0,1.7312727E1,1.5673176E0,1.1745813E0,8.187177E0,3.3307064E1,4.974408E0,6.1969986E0,1.5069646E3,1.4468066E1,8.1984E0,4.8545895E1,1.4811295E3,5.2413087E0,5.7190585E0,1.2781778E1,4.530948E0,9.13439E0,2.4172672E1,3.1101034E0,1.8643048E0,4.5074496E0,1.6895489E0,1.1657807E1,2.810259E0,4.3872295E1,4.6736007E0,2.055131E0,3.6639278E0,1.5993435E0,2.9316049E0,4.75103E0,4.3833594E0,2.7314396E0,2.1441233E1,1.2915125E0,1.0366295E1],"tree_param":{"num_deleted":"0","num_feature":"18","num_nodes":"55","size_leaf_vector":"1"}},{"base_weights":[6.55386E-4,-1.3859137E0,1.386092E0,-1.4093521E0,-1.1085628E-1,1.4196495E0,-7.437685E-1,-1.4200624E0,-2.177131E-1,6.626307E-2,-7.055524E-1,1.0779473E0,1.4276307E0,-8.729257E-1,4.4829957E-2,-1.423334E0,2.8724859E-2,4.7513482E-1,-1.0127261E0,-1.0463319E0,5.7217795E-3,1.1824336E0,2.9827237E-1,8.7598264E-1,7.146644E-2,-5.607625E-1,-6.506216E-2,-1.2044399E0,-7.148525E-2,-5.206961E-1,1.0037304E0,-6.0039945E-2,-1.663318E-2,-6.233987E-2,-7.982692E-2,4.816947E-2,-3.928662E-1,7.7978045E-1,1.298719E0,5.697575E-2,-5.042691E-2,5.947548E-2,-3.994379E-3,-1.0244901E0,5.5806387E-2,-6.583687E-2,-6.2058982E-3,-4.3808904E-2,7.326739E-4,1.5536055E-2,5.8566242E-2,-1.7213224E-2,1.0508391E-2,3.0844463E-2,-3.8162928E-2,6.353975E-2,5.8886255E-3,2.4389789E-2,6.886475E-2,4.4829957E-2,-6.6293426E-2],"categories":[],"categories_nodes":[],"categories_segments":[],"categories_sizes":[],"default_left":[0,0,0,0,0,0,0,0,0,0,0,0,0,0,0,0,0,0,0,0,0,0,0,0,0,0,0,0,0,0,0,0,0,0,0,0,0,0,0,0,0,0,0,0,0,0,0,0,0,0,0,0,0,0,0,0,0,0,0,0,0],"id":10,"left_children":[1,3,5,7,9,11,13,15,17,-1,19,21,23,25,-1,27,-1,29,31,33,35,37,39,41,-1,43,-1,45,-1,47,49,-1,-1,-1,51,-1,53,55,57,-1,-1,-1,-1,59,-1,-1,-1,-1,-1,-1,-1,-1,-1,-1,-1,-1,-1,-1,-1,-1,-1],"loss_changes":[5.8892153E3,4.563452E1,1.1065796E2,1.8892334E1,2.5482758E1,2.5793457E0,5.961172E0,1.0546387E1,8.513664E0,0E0,5.090866E0,2.7876015E0,1.2695312E-1,2.3676014E0,0E0,3.5424805E-1,0E0,4.982583E0,5.099182E-1,2.6495018E0,3.3519711E0,5.630951E-1,7.6273894E0,2.2232747E0,0E0,1.2929638E1,0E0,5.714699E0,0E0,6.9724697E-1,3.1854916E-1,0E0,0E0,0E0,3.4119284E-1,0E0,2.7937236E0,3.1152372E0,8.963356E-1,0E0,0E0,0E0,0E0,8.364983E0,0E0,0E0,0E0,0E0,0E0,0E0,0E0,0E0,0E0,0E0,0E0,0E0,0E0,0E0,0E0,0E0,0E0],"parents":[2147483647,0,0,1,1,2,2,3,3,4,4,5,5,6,6,7,7,8,8,10,10,11,11,12,12,13,13,15,15,17,17,18,18,19,19,20,20,21,21,22,22,23,23,25,25,27,27,29,29,30,30,34,34,36,36,37,37,38,38,43,43],"right_children":[2,4,6,8,10,12,14,16,18,-1,20,22,24,26,-1,28,-1,30,32,34,36,38,40,42,-1,44,-1,46,-1,48,50,-1,-1,-1,52,-1,54,56,58,-1,-1,-1,-1,60,-1,-1,-1,-1,-1,-1,-1,-1,-1,-1,-1,-1,-1,-1,-1,-1,-1],"split_conditions":[1.8E-1,1E0,1E0,-6E-2,1.234E1,9.45022E-4,1.77575E3,1E0,5.6701316E-3,6.626307E-2,1.265E1,8.8943244E-4,3.9E-1,1.4453277E-3,4.4829957E-2,9.45022E-4,2.8724859E-2,4.22E0,9.4E-1,1.251E1,5.0030573E-4,4.4471622E-4,3.5206E2,5.6701316E-3,7.146644E-2,9.45022E-4,-6.506216E-2,8.8943244E-4,-7.148525E-2,3E0,2.112402E-3,-6.0039945E-2,-1.663318E-2,-6.233987E-2,7.2E0,4.816947E-2,-3.5E1,2.42248E3,8.31E0,5.697575E-2,-5.042691E-2,5.947548E-2,-3.994379E-3,2.782E1,5.5806387E-2,-6.583687E-2,-6.2058982E-3,-4.3808904E-2,7.326739E-4,1.5536055E-2,5.8566242E-2,-1.7213224E-2,1.0508391E-2,3.0844463E-2,-3.8162928E-2,6.353975E-2,5.8886255E-3,2.4389789E-2,6.886475E-2,4.4829957E-2,-6.6293426E-2],"split_indices":[1,13,13,1,4,17,4,15,17,0,2,17,1,17,0,17,0,0,4,0,17,17,4,17,0,17,0,17,0,6,17,0,0,0,2,0,1,4,5,0,0,0,0,4,0,0,0,0,0,0,0,0,0,0,0,0,0,0,0,0,0],"split_type":[0,0,0,0,0,0,0,0,0,0,0,0,0,0,0,0,0,0,0,0,0,0,0,0,0,0,0,0,0,0,0,0,0,0,0,0,0,0,0,0,0,0,0,0,0,0,0,0,0,0,0,0,0,0,0,0,0,0,0,0,0],"sum_hessian":[3.0636975E3,1.5312227E3,1.5324747E3,1.5034801E3,2.7742594E1,1.5090322E3,2.3442457E1,1.4898973E3,1.3582691E1,7.7643E0,1.9978292E1,3.7547585E1,1.4714846E3,2.2165098E1,1.2773597E0,1.4877435E3,2.1538713E0,7.4726706E0,6.110021E0,1.31884775E1,6.789816E0,3.2654854E1,4.8927336E0,6.101472E0,1.4653832E3,1.4156723E1,8.008375E0,4.74524E1,1.4402911E3,2.596334E0,4.8763366E0,4.1865134E0,1.923508E0,1.0682735E1,2.5057418E0,1.5790074E0,5.2108088E0,9.044138E0,2.3610714E1,3.0544736E0,1.83826E0,4.4104204E0,1.691051E0,1.1394687E1,2.7620358E0,4.278603E1,4.666371E0,1.1776837E0,1.4186503E0,1.5054108E0,3.3709257E0,1.2127402E0,1.2930017E0,1.2198306E0,3.990978E0,4.6647E0,4.379438E0,2.7224348E0,2.0888279E1,1.2773597E0,1.0117327E1],"tree_param":{"num_deleted":"0","num_feature":"18","num_nodes":"61","size_leaf_vector":"1"}},{"base_weights":[7.046781E-4,-1.3563168E0,1.3569431E0,-1.379599E0,-1.05693504E-1,1.389917E0,-7.222375E-1,-1.390264E0,-2.1250139E-1,-7.508641E-1,1.148492E0,1.0496677E0,1.3979381E0,-8.501396E-1,4.3866847E-2,-1.3935375E0,2.7822739E-2,4.5952857E-1,-9.857808E-1,-9.071612E-1,3.1429026E-2,6.489722E-2,6.7021395E-3,1.1518221E0,2.8879538E-1,8.521664E-1,6.998205E-2,-5.423961E-1,-6.3586906E-2,-1.1735452E0,-6.9999136E-2,-5.0849277E-1,9.775674E-1,-5.864773E-2,-1.6094347E-2,-5.751816E-2,-1.4556424E-1,7.5512683E-1,1.2681183E0,5.5642035E-2,-4.9278587E-2,5.8146905E-2,-3.8667538E-3,-9.9746746E-1,5.450215E-2,-6.3806504E-2,-7.52028E-4,-4.2879354E-2,7.111646E-4,1.5082448E-2,5.7173587E-2,4.709394E-2,-4.125501E-2,6.1945003E-2,5.6530703E-3,2.3559293E-2,6.7371316E-2,4.3866847E-2,-6.480836E-2],"categories":[],"categories_nodes":[],"categories_segments":[],"categories_sizes":[],"default_left":[0,0,0,0,0,0,0,0,0,0,0,0,0,0,0,0,0,0,0,0,0,0,0,0,0,0,0,0,0,0,0,0,0,0,0,0,0,0,0,0,0,0,0,0,0,0,0,0,0,0,0,0,0,0,0,0,0,0,0],"id":11,"left_children":[1,3,5,7,9,11,13,15,17,19,21,23,25,27,-1,29,-1,31,33,35,-1,-1,-1,37,39,41,-1,43,-1,45,-1,47,49,-1,-1,-1,51,53,55,-1,-1,-1,-1,57,-1,-1,-1,-1,-1,-1,-1,-1,-1,-1,-1,-1,-1,-1,-1],"loss_changes":[5.4809146E3,4.319751E1,1.0311865E2,1.7893799E1,2.3752556E1,2.5351562E0,5.637706E0,1.0001709E1,7.942977E0,4.7279844E0,1.342802E0,2.60466E0,1.3598633E-1,2.2486782E0,0E0,4.0698242E-1,0E0,4.7061577E0,4.9472427E-1,3.1167192E0,0E0,0E0,0E0,5.640297E-1,7.195735E0,2.112986E0,0E0,1.2108232E1,0E0,5.606209E0,0E0,6.6615254E-1,3.0655527E-1,0E0,0E0,0E0,4.7944727E0,2.9502912E0,8.840904E-1,0E0,0E0,0E0,0E0,7.926425E0,0E0,0E0,0E0,0E0,0E0,0E0,0E0,0E0,0E0,0E0,0E0,0E0,0E0,0E0,0E0],"parents":[2147483647,0,0,1,1,2,2,3,3,4,4,5,5,6,6,7,7,8,8,9,9,10,10,11,11,12,12,13,13,15,15,17,17,18,18,19,19,23,23,24,24,25,25,27,27,29,29,31,31,32,32,36,36,37,37,38,38,43,43],"right_children":[2,4,6,8,10,12,14,16,18,20,22,24,26,28,-1,30,-1,32,34,36,-1,-1,-1,38,40,42,-1,44,-1,46,-1,48,50,-1,-1,-1,52,54,56,-1,-1,-1,-1,58,-1,-1,-1,-1,-1,-1,-1,-1,-1,-1,-1,-1,-1,-1,-1],"split_conditions":[1.8E-1,1E0,1E0,-6E-2,1.4453277E-3,9.45022E-4,1.77575E3,1E0,5.6701316E-3,2.224E1,1E3,8.8943244E-4,3.9E-1,1.4453277E-3,4.3866847E-2,9.45022E-4,2.7822739E-2,4.22E0,9.4E-1,1.265E1,3.1429026E-2,6.489722E-2,6.7021395E-3,4.4471622E-4,3.5206E2,5.6701316E-3,6.998205E-2,9.45022E-4,-6.3586906E-2,5E0,-6.9999136E-2,3E0,2.112402E-3,-5.864773E-2,-1.6094347E-2,-5.751816E-2,5.0030573E-4,2.42248E3,8.31E0,5.5642035E-2,-4.9278587E-2,5.8146905E-2,-3.8667538E-3,2.782E1,5.450215E-2,-6.3806504E-2,-7.52028E-4,-4.2879354E-2,7.111646E-4,1.5082448E-2,5.7173587E-2,4.709394E-2,-4.125501E-2,6.1945003E-2,5.6530703E-3,2.3559293E-2,6.7371316E-2,4.3866847E-2,-6.480836E-2],"split_indices":[1,13,13,1,17,17,4,15,17,0,2,17,1,17,0,17,0,0,4,2,0,0,0,17,4,17,0,17,0,3,0,6,17,0,0,0,17,4,5,0,0,0,0,4,0,0,0,0,0,0,0,0,0,0,0,0,0,0,0],"split_type":[0,0,0,0,0,0,0,0,0,0,0,0,0,0,0,0,0,0,0,0,0,0,0,0,0,0,0,0,0,0,0,0,0,0,0,0,0,0,0,0,0,0,0,0,0,0,0,0,0,0,0,0,0,0,0,0,0,0,0],"sum_hessian":[2.976038E3,1.4875896E3,1.4884486E3,1.4603009E3,2.7288712E1,1.465538E3,2.291061E1,1.4468878E3,1.3413046E1,1.8284317E1,9.004395E0,3.6790276E1,1.4287477E3,2.1648144E1,1.2624657E0,1.4447427E3,2.1451676E0,7.393422E0,6.0196238E0,1.6730993E1,1.5533227E0,7.6046004E0,1.3997941E0,3.1982506E1,4.8077717E0,6.003499E0,1.4227441E3,1.3835512E1,7.8126326E0,4.6333916E1,1.3984087E3,2.5837622E0,4.8096604E0,4.0975947E0,1.9220288E0,1.2294506E1,4.436487E0,8.9492035E0,2.3033302E1,2.9967382E0,1.8110335E0,4.311006E0,1.6924933E0,1.1123587E1,2.7119255E0,4.2471554E1,3.8623612E0,1.1650503E0,1.4187118E0,1.5032814E0,3.3063788E0,1.5576923E0,2.8787947E0,4.573603E0,4.3756003E0,2.7129767E0,2.0320326E1,1.2624657E0,9.86112E0],"tree_param":{"num_deleted":"0","num_feature":"18","num_nodes":"59","size_leaf_vector":"1"}},{"base_weights":[7.6129154E-4,-1.3292111E0,1.3302991E0,-1.3523493E0,-1.0047789E-1,1.3627524E0,-7.0204365E-1,-1.3629942E0,-2.0756239E-1,6.3345425E-2,-6.602228E-1,1.0231289E0,1.3708377E0,-8.288666E-1,4.2945173E-2,-1.3662764E0,2.6954828E-2,4.4467184E-1,-9.602037E-1,-9.8650056E-1,7.310317E-3,1.1231003E0,2.7983478E-1,8.295372E-1,6.862759E-2,-5.2509004E-1,-6.221499E-2,-1.1434501E0,-6.8643145E-2,-4.9673828E-1,9.5273346E-1,-5.734081E-2,-1.5574205E-2,-5.9312332E-2,-5.43361E-2,5.819734E-1,-5.944173E-1,7.317127E-1,1.2396395E0,5.438452E-2,-4.8186846E-2,5.689761E-2,-3.7432478E-3,-9.721887E-1,5.3270485E-2,-6.2991194E-2,-3.5745509E-3,-4.2181265E-2,8.9600123E-4,1.4642983E-2,5.5863913E-2,-1.6021369E-2,1.1279377E-2,5.5871166E-2,-1.1833153E-2,7.0392E-3,-5.0427448E-2,6.0458858E-2,5.4268804E-3,2.276042E-2,6.599609E-2,4.2945173E-2,-6.3431226E-2],"categories":[],"categories_nodes":[],"categories_segments":[],"categories_sizes":[],"default_left":[0,0,0,0,0,0,0,0,0,0,0,0,0,0,0,0,0,0,0,0,0,0,0,0,0,0,0,0,0,0,0,0,0,0,0,0,0,0,0,0,0,0,0,0,0,0,0,0,0,0,0,0,0,0,0,0,0,0,0,0,0,0,0],"id":12,"left_children":[1,3,5,7,9,11,13,15,17,-1,19,21,23,25,-1,27,-1,29,31,33,35,37,39,41,-1,43,-1,45,-1,47,49,-1,-1,-1,51,53,55,57,59,-1,-1,-1,-1,61,-1,-1,-1,-1,-1,-1,-1,-1,-1,-1,-1,-1,-1,-1,-1,-1,-1,-1,-1],"loss_changes":[5.1083013E3,4.0924316E1,9.624292E1,1.6990479E1,2.2093962E1,2.5029297E0,5.337696E0,9.50293E0,7.4165645E0,0E0,4.4425097E0,2.4363098E0,1.4794922E-1,2.1381292E0,0E0,4.880371E-1,0E0,4.4485884E0,4.813485E-1,2.483759E0,3.0010312E0,5.6601334E-1,6.794903E0,2.0108724E0,0E0,1.1351897E1,0E0,5.6779633E0,0E0,6.525694E-1,2.961321E-1,0E0,0E0,0E0,3.30233E-1,2.2075136E0,1.4346322E0,2.799734E0,8.7564087E-1,0E0,0E0,0E0,0E0,7.5200453E0,0E0,0E0,0E0,0E0,0E0,0E0,0E0,0E0,0E0,0E0,0E0,0E0,0E0,0E0,0E0,0E0,0E0,0E0,0E0],"parents":[2147483647,0,0,1,1,2,2,3,3,4,4,5,5,6,6,7,7,8,8,10,10,11,11,12,12,13,13,15,15,17,17,18,18,19,19,20,20,21,21,22,22,23,23,25,25,27,27,29,29,30,30,34,34,35,35,36,36,37,37,38,38,43,43],"right_children":[2,4,6,8,10,12,14,16,18,-1,20,22,24,26,-1,28,-1,30,32,34,36,38,40,42,-1,44,-1,46,-1,48,50,-1,-1,-1,52,54,56,58,60,-1,-1,-1,-1,62,-1,-1,-1,-1,-1,-1,-1,-1,-1,-1,-1,-1,-1,-1,-1,-1,-1,-1,-1],"split_conditions":[1.8E-1,1E0,1E0,-6E-2,1.234E1,9.45022E-4,1.77575E3,1E0,5.6701316E-3,6.3345425E-2,1.265E1,8.8943244E-4,3.9E-1,1.4453277E-3,4.2945173E-2,9.45022E-4,2.6954828E-2,4.22E0,9.4E-1,1.251E1,9.45022E-4,4.4471622E-4,3.5206E2,5.6701316E-3,6.862759E-2,9.45022E-4,-6.221499E-2,8.8943244E-4,-6.8643145E-2,1.38E0,2.112402E-3,-5.734081E-2,-1.5574205E-2,-5.9312332E-2,7.2E0,8.02E0,3.161E1,2.42248E3,8.31E0,5.438452E-2,-4.8186846E-2,5.689761E-2,-3.7432478E-3,2.782E1,5.3270485E-2,-6.2991194E-2,-3.5745509E-3,-4.2181265E-2,8.9600123E-4,1.4642983E-2,5.5863913E-2,-1.6021369E-2,1.1279377E-2,5.5871166E-2,-1.1833153E-2,7.0392E-3,-5.0427448E-2,6.0458858E-2,5.4268804E-3,2.276042E-2,6.599609E-2,4.2945173E-2,-6.3431226E-2],"split_indices":[1,13,13,1,4,17,4,15,17,0,2,17,1,17,0,17,0,0,4,0,17,17,4,17,0,17,0,17,0,4,17,0,0,0,2,0,4,4,5,0,0,0,0,4,0,0,0,0,0,0,0,0,0,0,0,0,0,0,0,0,0,0,0],"split_type":[0,0,0,0,0,0,0,0,0,0,0,0,0,0,0,0,0,0,0,0,0,0,0,0,0,0,0,0,0,0,0,0,0,0,0,0,0,0,0,0,0,0,0,0,0,0,0,0,0,0,0,0,0,0,0,0,0,0,0,0,0,0,0],"sum_hessian":[2.8869043E3,1.4432164E3,1.443688E3,1.4164429E3,2.6773533E1,1.4213212E3,2.2366783E1,1.4032045E3,1.3238361E1,7.409555E0,1.9363977E1,3.6015976E1,1.3853052E3,2.1119848E1,1.2469361E0,1.4010686E3,2.13596E0,7.3114715E0,5.9268904E0,1.2685643E1,6.678335E0,3.1295784E1,4.7201915E0,5.903782E0,1.3794014E3,1.3507057E1,7.6127896E0,4.523756E1,1.355831E3,2.5705926E0,4.7408786E0,4.006542E0,1.920348E0,1.022256E1,2.4630828E0,3.432782E0,3.245553E0,8.850563E0,2.244522E1,2.9373586E0,1.7828327E0,4.2099037E0,1.6938784E0,1.0846731E1,2.6603262E0,4.064935E1,4.588214E0,1.1537523E0,1.4168403E0,1.5010473E0,3.2398314E0,1.1885598E0,1.2745229E0,1.8546922E0,1.5780897E0,1.4072809E0,1.8382722E0,4.478713E0,4.3718505E0,2.7031407E0,1.974208E1,1.2469361E0,9.599795E0],"tree_param":{"num_deleted":"0","num_feature":"18","num_nodes":"63","size_leaf_vector":"1"}},{"base_weights":[7.9853606E-4,-1.3043474E0,1.3058699E0,-1.3273859E0,-9.7204484E-2,1.3378586E0,-6.8303466E-1,-1.3380347E0,-2.0286655E-1,6.198528E-2,-6.4001906E-1,9.981293E-1,1.3460306E0,-8.0893475E-1,4.2061955E-2,-1.3413326E0,2.6119161E-2,-5.6927454E-1,5.148342E-2,-9.594936E-1,7.0750574E-3,1.0960451E0,2.713418E-1,8.0798125E-1,6.73881E-2,-5.087224E-1,-6.093465E-2,-1.1160176E0,-6.7402266E-2,-6.040248E-2,7.937799E-2,-5.7896223E-2,-5.3020343E-2,5.65971E-1,-5.7909137E-1,7.09423E-1,1.2130295E0,5.3195596E-2,-4.7146864E-2,5.5719282E-2,-3.6237238E-3,-9.4845384E-1,5.2104324E-2,-6.1069507E-2,1.583886E-3,-3.580834E-2,2.9177997E-2,-1.5617027E-2,1.0948113E-2,5.4516573E-2,-1.1471476E-2,6.8399305E-3,-4.92791E-2,5.9069104E-2,5.209699E-3,2.1991499E-2,6.472534E-2,4.2061955E-2,-6.2149614E-2],"categories":[],"categories_nodes":[],"categories_segments":[],"categories_sizes":[],"default_left":[0,0,0,0,0,0,0,0,0,0,0,0,0,0,0,0,0,0,0,0,0,0,0,0,0,0,0,0,0,0,0,0,0,0,0,0,0,0,0,0,0,0,0,0,0,0,0,0,0,0,0,0,0,0,0,0,0,0,0],"id":13,"left_children":[1,3,5,7,9,11,13,15,17,-1,19,21,23,25,-1,27,-1,29,-1,31,33,35,37,39,-1,41,-1,43,-1,-1,45,-1,47,49,51,53,55,-1,-1,-1,-1,57,-1,-1,-1,-1,-1,-1,-1,-1,-1,-1,-1,-1,-1,-1,-1,-1,-1],"loss_changes":[4.767459E3,3.8790283E1,8.99541E1,1.6171875E1,2.0595554E1,2.4814453E0,5.0588083E0,9.045166E0,6.9358163E0,0E0,4.1552095E0,2.2808914E0,1.6186523E-1,2.03516E0,0E0,5.4907227E-1,0E0,4.8533955E0,0E0,2.3563757E0,2.8258312E0,5.6866837E-1,6.422091E0,1.9160309E0,0E0,1.0653955E1,0E0,5.4925194E0,0E0,0E0,3.0793476E0,0E0,3.1256586E-1,2.089112E0,1.3617228E0,2.6616669E0,8.7018967E-1,0E0,0E0,0E0,0E0,7.142517E0,0E0,0E0,0E0,0E0,0E0,0E0,0E0,0E0,0E0,0E0,0E0,0E0,0E0,0E0,0E0,0E0,0E0],"parents":[2147483647,0,0,1,1,2,2,3,3,4,4,5,5,6,6,7,7,8,8,10,10,11,11,12,12,13,13,15,15,17,17,19,19,20,20,21,21,22,22,23,23,25,25,27,27,30,30,32,32,33,33,34,34,35,35,36,36,41,41],"right_children":[2,4,6,8,10,12,14,16,18,-1,20,22,24,26,-1,28,-1,30,-1,32,34,36,38,40,-1,42,-1,44,-1,-1,46,-1,48,50,52,54,56,-1,-1,-1,-1,58,-1,-1,-1,-1,-1,-1,-1,-1,-1,-1,-1,-1,-1,-1,-1,-1,-1],"split_conditions":[1.8E-1,1E0,1E0,-6E-2,1.234E1,9.45022E-4,1.77575E3,1E0,1.038E1,6.198528E-2,1.265E1,8.8943244E-4,3.9E-1,1.4453277E-3,4.2061955E-2,9.45022E-4,2.6119161E-2,9.4E-1,5.148342E-2,1.251E1,9.45022E-4,4.4471622E-4,3.5206E2,5.6701316E-3,6.73881E-2,9.45022E-4,-6.093465E-2,5E0,-6.7402266E-2,-6.040248E-2,2.57E0,-5.7896223E-2,7.2E0,8.02E0,3.161E1,2.42248E3,8.31E0,5.3195596E-2,-4.7146864E-2,5.5719282E-2,-3.6237238E-3,2.782E1,5.2104324E-2,-6.1069507E-2,1.583886E-3,-3.580834E-2,2.9177997E-2,-1.5617027E-2,1.0948113E-2,5.4516573E-2,-1.1471476E-2,6.8399305E-3,-4.92791E-2,5.9069104E-2,5.209699E-3,2.1991499E-2,6.472534E-2,4.2061955E-2,-6.2149614E-2],"split_indices":[1,13,13,1,4,17,4,15,0,0,2,17,1,17,0,17,0,4,0,0,17,17,4,17,0,17,0,3,0,0,0,0,2,0,4,4,5,0,0,0,0,4,0,0,0,0,0,0,0,0,0,0,0,0,0,0,0,0,0],"split_type":[0,0,0,0,0,0,0,0,0,0,0,0,0,0,0,0,0,0,0,0,0,0,0,0,0,0,0,0,0,0,0,0,0,0,0,0,0,0,0,0,0,0,0,0,0,0,0,0,0,0,0,0,0,0,0,0,0,0,0],"sum_hessian":[2.7969402E3,1.3984304E3,1.3985099E3,1.3721433E3,2.6287138E1,1.3766951E3,2.18148E1,1.3590833E3,1.3060015E1,7.220287E0,1.906685E1,3.523032E1,1.3414647E3,2.0583933E1,1.2308682E0,1.3569569E3,2.1263237E0,1.048204E1,2.5779743E0,1.24415865E1,6.6252637E0,3.0599728E1,4.6305914E0,5.8029385E0,1.3356617E3,1.3173669E1,7.4102635E0,4.4096985E1,1.31286E3,4.8467236E0,5.635317E0,9.979612E0,2.4619749E0,3.4091616E0,3.2161021E0,8.749081E0,2.1850647E1,2.876747E0,1.7538445E0,4.10773E0,1.6952088E0,1.0566074E1,2.6075943E0,4.0329987E1,3.766997E0,2.0229177E0,3.6123989E0,1.184365E0,1.2776098E0,1.8311787E0,1.5779829E0,1.4050558E0,1.8110464E0,4.380892E0,4.3681893E0,2.692995E0,1.9157652E1,1.2308682E0,9.335206E0],"tree_param":{"num_deleted":"0","num_feature":"18","num_nodes":"59","size_leaf_vector":"1"}},{"base_weights":[8.487359E-4,-1.2813916E0,1.2834088E0,-1.304369E0,-9.408933E-2,1.3149828E0,-6.650797E-1,-1.3150538E0,-1.9663723E-1,6.071368E-2,-6.207999E-1,9.744955E-1,1.3232627E0,-7.901961E-1,4.1214462E-2,-1.3183732E0,2.5313959E-2,4.2480898E-1,-9.1901195E-1,-7.6031154E-1,3.1005591E-2,1.0704646E0,2.6327357E-1,7.87399E-1,6.6250846E-2,-4.9318886E-1,-5.9735764E-2,-1.0890081E0,-6.626379E-2,-4.641381E-1,9.09732E-1,-3.487325E-1,-5.752759E-2,-5.3501677E-2,-6.473662E-2,6.429062E-2,8.207885E-1,5.206859E-2,-4.6154328E-2,5.460465E-2,-3.5080628E-3,-9.26091E-1,5.0997455E-2,-6.0510308E-2,-1.139019E-3,-4.0430546E-2,1.5944962E-3,1.3823302E-2,5.362138E-2,-3.7830915E-2,1.1258295E-2,4.3760236E-2,-2.503041E-2,5.275942E-2,1.3889791E-2,4.1214462E-2,-6.0952853E-2],"categories":[],"categories_nodes":[],"categories_segments":[],"categories_sizes":[],"default_left":[0,0,0,0,0,0,0,0,0,0,0,0,0,0,0,0,0,0,0,0,0,0,0,0,0,0,0,0,0,0,0,0,0,0,0,0,0,0,0,0,0,0,0,0,0,0,0,0,0,0,0,0,0,0,0,0,0],"id":14,"left_children":[1,3,5,7,9,11,13,15,17,-1,19,21,23,25,-1,27,-1,29,31,33,-1,35,37,39,-1,41,-1,43,-1,45,47,49,-1,-1,51,-1,53,-1,-1,-1,-1,55,-1,-1,-1,-1,-1,-1,-1,-1,-1,-1,-1,-1,-1,-1,-1],"loss_changes":[4.454615E3,3.6830322E1,8.418652E1,1.5468018E1,1.9218134E1,2.4682617E0,4.7990055E0,8.622559E0,6.616814E0,0E0,3.8932228E0,2.13702E0,1.7749023E-1,1.9390707E0,0E0,6.3671875E-1,0E0,3.9310088E0,4.8743486E-1,3.8552313E0,0E0,6.0595703E-1,6.0748215E0,1.8276834E0,0E0,1.00086E1,0E0,5.6570625E0,0E0,6.298313E-1,2.8093958E-1,9.6119523E-1,0E0,0E0,3.1735637E0,0E0,1.8799973E0,0E0,0E0,0E0,0E0,6.790963E0,0E0,0E0,0E0,0E0,0E0,0E0,0E0,0E0,0E0,0E0,0E0,0E0,0E0,0E0,0E0],"parents":[2147483647,0,0,1,1,2,2,3,3,4,4,5,5,6,6,7,7,8,8,10,10,11,11,12,12,13,13,15,15,17,17,18,18,19,19,21,21,22,22,23,23,25,25,27,27,29,29,30,30,31,31,34,34,36,36,41,41],"right_children":[2,4,6,8,10,12,14,16,18,-1,20,22,24,26,-1,28,-1,30,32,34,-1,36,38,40,-1,42,-1,44,-1,46,48,50,-1,-1,52,-1,54,-1,-1,-1,-1,56,-1,-1,-1,-1,-1,-1,-1,-1,-1,-1,-1,-1,-1,-1,-1],"split_conditions":[1.8E-1,1E0,1E0,-6E-2,1.234E1,9.45022E-4,1.77575E3,1E0,5.6701316E-3,6.071368E-2,2.224E1,8.8943244E-4,3.9E-1,1.4453277E-3,4.1214462E-2,9.45022E-4,2.5313959E-2,4.22E0,8.29E0,1.265E1,3.1005591E-2,6.73E0,3.5206E2,5.6701316E-3,6.6250846E-2,9.45022E-4,-5.9735764E-2,8.8943244E-4,-6.626379E-2,3E0,2.112402E-3,9.4E-1,-5.752759E-2,-5.3501677E-2,5.0030573E-4,6.429062E-2,2.93727E3,5.206859E-2,-4.6154328E-2,5.460465E-2,-3.5080628E-3,2.782E1,5.0997455E-2,-6.0510308E-2,-1.139019E-3,-4.0430546E-2,1.5944962E-3,1.3823302E-2,5.362138E-2,-3.7830915E-2,1.1258295E-2,4.3760236E-2,-2.503041E-2,5.275942E-2,1.3889791E-2,4.1214462E-2,-6.0952853E-2],"split_indices":[1,13,13,1,4,17,4,15,17,0,0,17,1,17,0,17,0,0,2,2,0,0,4,17,0,17,0,17,0,6,17,4,0,0,17,0,5,0,0,0,0,4,0,0,0,0,0,0,0,0,0,0,0,0,0,0,0],"split_type":[0,0,0,0,0,0,0,0,0,0,0,0,0,0,0,0,0,0,0,0,0,0,0,0,0,0,0,0,0,0,0,0,0,0,0,0,0,0,0,0,0,0,0,0,0,0,0,0,0,0,0,0,0,0,0,0,0],"sum_hessian":[2.7067134E3,1.3535258E3,1.3531875E3,1.327732E3,2.5793713E1,1.3319296E3,2.1258001E1,1.3148623E3,1.28698435E1,7.0287423E0,1.876497E1,3.4438217E1,1.2974913E3,2.0043652E1,1.2143509E0,1.312746E3,2.1163256E0,7.1396537E0,5.7301903E0,1.7216654E1,1.5483159E0,2.989871E1,4.539507E0,5.7015114E0,1.2917898E3,1.2837362E1,7.2062883E0,4.29903E1,1.2697556E3,2.5351503E0,4.604503E0,2.3783906E0,3.3517997E0,1.1539888E1,5.676766E0,1.3824791E1,1.607392E1,2.8152685E0,1.7242383E0,4.0050244E0,1.696487E0,1.0283317E1,2.5540457E0,3.8481117E1,4.5091815E0,1.1242377E0,1.4109126E0,1.492904E0,3.1115992E0,1.2041694E0,1.174221E0,1.4791312E0,4.1976347E0,1.0568439E1,5.5054817E0,1.2143509E0,9.068966E0],"tree_param":{"num_deleted":"0","num_feature":"18","num_nodes":"57","size_leaf_vector":"1"}},{"base_weights":[8.973875E-4,-1.2601988E0,1.262647E0,-1.2831858E0,-8.89825E-2,1.2938497E0,-6.480648E-1,-1.2939113E0,-1.9333778E-1,-6.664801E-1,1.0471516E0,9.5036995E-1,1.3023146E0,-7.7252185E-1,4.0400233E-2,-1.2972584E0,2.4537567E-2,4.116522E-1,-8.9803404E-1,-8.2149947E-1,3.0184379E-2,4.3207503E-5,5.969372E-2,1.0441029E0,2.5559223E-1,7.677032E-1,6.520485E-2,-4.7839838E-1,-5.8609474E-2,-1.0642663E0,-6.52167E-2,-4.5383427E-1,8.8805354E-1,-3.4127024E-1,-5.6254227E-2,-1.0437614E0,-1.4271672E-1,6.308442E-2,7.956314E-1,5.0997622E-2,-4.5205392E-2,5.3547323E-2,-3.396117E-3,-9.049504E-1,4.994438E-2,-5.9311885E-2,-1.0927132E-3,-3.970808E-2,1.62459E-3,1.3423013E-2,5.250541E-2,-3.7150092E-2,1.0950874E-2,-5.5363413E-2,-2.1299554E-2,4.2879336E-2,-3.7790287E-2,5.139115E-2,1.3345599E-2,4.0400233E-2,-5.983165E-2],"categories":[],"categories_nodes":[],"categories_segments":[],"categories_sizes":[],"default_left":[0,0,0,0,0,0,0,0,0,0,0,0,0,0,0,0,0,0,0,0,0,0,0,0,0,0,0,0,0,0,0,0,0,0,0,0,0,0,0,0,0,0,0,0,0,0,0,0,0,0,0,0,0,0,0,0,0,0,0,0,0],"id":15,"left_children":[1,3,5,7,9,11,13,15,17,19,21,23,25,27,-1,29,-1,31,33,35,-1,-1,-1,37,39,41,-1,43,-1,45,-1,47,49,51,-1,53,55,-1,57,-1,-1,-1,-1,59,-1,-1,-1,-1,-1,-1,-1,-1,-1,-1,-1,-1,-1,-1,-1,-1,-1],"loss_changes":[4.1668037E3,3.5145996E1,7.888037E1,1.4763184E1,1.794342E1,2.5080566E0,4.556508E0,8.23291E0,6.2072773E0,4.0475235E0,1.4184837E0,1.9920254E0,1.9433594E-1,1.8492508E0,0E0,7.04834E-1,0E0,3.7235007E0,4.5534992E-1,2.3402205E0,0E0,0E0,0E0,6.3098526E-1,5.75089E0,1.7451599E0,0E0,9.410762E0,0E0,5.4225273E0,0E0,6.085407E-1,2.7357626E-1,9.1871333E-1,0E0,9.732246E-3,3.8545253E0,0E0,1.7911186E0,0E0,0E0,0E0,0E0,6.462884E0,0E0,0E0,0E0,0E0,0E0,0E0,0E0,0E0,0E0,0E0,0E0,0E0,0E0,0E0,0E0,0E0,0E0],"parents":[2147483647,0,0,1,1,2,2,3,3,4,4,5,5,6,6,7,7,8,8,9,9,10,10,11,11,12,12,13,13,15,15,17,17,18,18,19,19,23,23,24,24,25,25,27,27,29,29,31,31,32,32,33,33,35,35,36,36,38,38,43,43],"right_children":[2,4,6,8,10,12,14,16,18,20,22,24,26,28,-1,30,-1,32,34,36,-1,-1,-1,38,40,42,-1,44,-1,46,-1,48,50,52,-1,54,56,-1,58,-1,-1,-1,-1,60,-1,-1,-1,-1,-1,-1,-1,-1,-1,-1,-1,-1,-1,-1,-1,-1,-1],"split_conditions":[1.8E-1,1E0,1E0,-6E-2,1.4453277E-3,9.45022E-4,1.77575E3,1E0,5.6701316E-3,2.224E1,3.07E0,8.8943244E-4,3.9E-1,1.4453277E-3,4.0400233E-2,9.45022E-4,2.4537567E-2,4.22E0,8.29E0,1.265E1,3.0184379E-2,4.3207503E-5,5.969372E-2,6.73E0,3.5206E2,5.6701316E-3,6.520485E-2,9.45022E-4,-5.8609474E-2,8.8943244E-4,-6.52167E-2,1.38E0,2.112402E-3,9.4E-1,-5.6254227E-2,1.251E1,5.0030573E-4,6.308442E-2,2.93727E3,5.0997622E-2,-4.5205392E-2,5.3547323E-2,-3.396117E-3,2.782E1,4.994438E-2,-5.9311885E-2,-1.0927132E-3,-3.970808E-2,1.62459E-3,1.3423013E-2,5.250541E-2,-3.7150092E-2,1.0950874E-2,-5.5363413E-2,-2.1299554E-2,4.2879336E-2,-3.7790287E-2,5.139115E-2,1.3345599E-2,4.0400233E-2,-5.983165E-2],"split_indices":[1,13,13,1,17,17,4,15,17,0,0,17,1,17,0,17,0,0,2,2,0,0,0,0,4,17,0,17,0,17,0,4,17,4,0,0,17,0,5,0,0,0,0,4,0,0,0,0,0,0,0,0,0,0,0,0,0,0,0,0,0],"split_type":[0,0,0,0,0,0,0,0,0,0,0,0,0,0,0,0,0,0,0,0,0,0,0,0,0,0,0,0,0,0,0,0,0,0,0,0,0,0,0,0,0,0,0,0,0,0,0,0,0,0,0,0,0,0,0,0,0,0,0,0,0],"sum_hessian":[2.616675E3,1.308677E3,1.307998E3,1.2833927E3,2.52843E1,1.2872987E3,2.0699306E1,1.2707002E3,1.2692543E1,1.7037504E1,8.246795E0,3.3686214E1,1.2536125E3,1.950184E1,1.1974661E0,1.2685941E3,2.1060278E0,7.053164E0,5.639379E0,1.5499127E1,1.5383767E0,1.1379453E0,7.1088495E0,2.92388E1,4.4474134E0,5.599972E0,1.2480126E3,1.2499901E1,7.001939E0,4.1852474E1,1.2267417E3,2.5208545E0,4.5323095E0,2.3586512E0,3.280728E0,1.1270875E1,4.2282524E0,1.3414213E1,1.5824587E1,2.753247E0,1.6941663E0,3.902257E0,1.6977149E0,9.999939E0,2.499962E0,3.734483E1,4.507644E0,1.1106489E0,1.4102056E0,1.4904369E0,3.0418727E0,1.1837695E0,1.1748817E0,9.501734E0,1.7691408E0,1.455193E0,2.7730594E0,1.0339794E1,5.4847927E0,1.1974661E0,8.802473E0],"tree_param":{"num_deleted":"0","num_feature":"18","num_nodes":"61","size_leaf_vector":"1"}},{"base_weights":[9.317823E-4,-1.2406156E0,1.2434559E0,-1.2635971E0,-8.559876E-2,1.2743281E0,-6.3189125E-1,-1.2743819E0,-1.9020672E-1,5.8565307E-2,-5.8469504E-1,9.273749E-1,1.2829978E0,-7.5580025E-1,3.9617017E-2,-1.277762E0,2.3788491E-2,3.9904216E-1,-8.78053E-1,-7.2010875E-1,2.9391868E-2,1.0189608E0,2.4826458E-1,7.488177E-1,6.4240664E-2,-4.6427238E-1,-5.7548087E-2,-1.040698E0,-6.425152E-2,-4.4387764E-1,8.6729056E-1,-3.340863E-1,-5.5048537E-2,-1.0200605E0,-6.1427176E-2,6.34881E-1,1.1415037E0,4.9977485E-2,-4.4296604E-2,5.2541703E-2,-3.2877799E-3,-8.849021E-1,4.8940238E-2,-5.7642233E-2,5.9780297E-3,-3.9058592E-2,1.703462E-3,1.30349E-2,5.1444836E-2,-3.6491636E-2,1.06522115E-2,-5.4159094E-2,-2.0733299E-2,4.2033713E-2,-2.384079E-2,5.536739E-2,3.3038543E-3,1.7676132E-2,6.169609E-2,3.9617017E-2,-5.8777917E-2],"categories":[],"categories_nodes":[],"categories_segments":[],"categories_sizes":[],"default_left":[0,0,0,0,0,0,0,0,0,0,0,0,0,0,0,0,0,0,0,0,0,0,0,0,0,0,0,0,0,0,0,0,0,0,0,0,0,0,0,0,0,0,0,0,0,0,0,0,0,0,0,0,0,0,0,0,0,0,0,0,0],"id":16,"left_children":[1,3,5,7,9,11,13,15,17,-1,19,21,23,25,-1,27,-1,29,31,33,-1,35,37,39,-1,41,-1,43,-1,45,47,49,-1,51,53,55,57,-1,-1,-1,-1,59,-1,-1,-1,-1,-1,-1,-1,-1,-1,-1,-1,-1,-1,-1,-1,-1,-1,-1,-1],"loss_changes":[3.9016643E3,3.3472534E1,7.39917E1,1.4116089E1,1.6840374E1,2.552124E0,4.329756E0,7.87146E0,5.8275857E0,0E0,3.456057E0,1.8576431E0,2.121582E-1,1.7651548E0,0E0,7.747803E-1,0E0,3.5291014E0,4.2613792E-1,3.4092102E0,0E0,6.674843E-1,5.4483285E0,1.6678813E0,0E0,8.855989E0,0E0,5.566662E0,0E0,5.918587E-1,2.6697445E-1,8.78439E-1,0E0,9.789467E-3,2.8599505E0,2.455131E0,1.1055832E0,0E0,0E0,0E0,0E0,6.1560984E0,0E0,0E0,0E0,0E0,0E0,0E0,0E0,0E0,0E0,0E0,0E0,0E0,0E0,0E0,0E0,0E0,0E0,0E0,0E0],"parents":[2147483647,0,0,1,1,2,2,3,3,4,4,5,5,6,6,7,7,8,8,10,10,11,11,12,12,13,13,15,15,17,17,18,18,19,19,21,21,22,22,23,23,25,25,27,27,29,29,30,30,31,31,33,33,34,34,35,35,36,36,41,41],"right_children":[2,4,6,8,10,12,14,16,18,-1,20,22,24,26,-1,28,-1,30,32,34,-1,36,38,40,-1,42,-1,44,-1,46,48,50,-1,52,54,56,58,-1,-1,-1,-1,60,-1,-1,-1,-1,-1,-1,-1,-1,-1,-1,-1,-1,-1,-1,-1,-1,-1,-1,-1],"split_conditions":[1.8E-1,1E0,1E0,-6E-2,1.234E1,9.45022E-4,1.77575E3,1E0,5.6701316E-3,5.8565307E-2,2.224E1,8.8943244E-4,3.9E-1,1.4453277E-3,3.9617017E-2,9.45022E-4,2.3788491E-2,4.22E0,8.29E0,1.265E1,2.9391868E-2,4.4471622E-4,3.5206E2,5.6701316E-3,6.4240664E-2,9.45022E-4,-5.7548087E-2,5E0,-6.425152E-2,3E0,2.112402E-3,9.4E-1,-5.5048537E-2,1.251E1,5.0030573E-4,2.42248E3,8.31E0,4.9977485E-2,-4.4296604E-2,5.2541703E-2,-3.2877799E-3,2.782E1,4.8940238E-2,-5.7642233E-2,5.9780297E-3,-3.9058592E-2,1.703462E-3,1.30349E-2,5.1444836E-2,-3.6491636E-2,1.06522115E-2,-5.4159094E-2,-2.0733299E-2,4.2033713E-2,-2.384079E-2,5.536739E-2,3.3038543E-3,1.7676132E-2,6.169609E-2,3.9617017E-2,-5.8777917E-2],"split_indices":[1,13,13,1,4,17,4,15,17,0,0,17,1,17,0,17,0,0,2,2,0,17,4,17,0,17,0,3,0,6,17,4,0,0,17,4,5,0,0,0,0,4,0,0,0,0,0,0,0,0,0,0,0,0,0,0,0,0,0,0,0],"split_type":[0,0,0,0,0,0,0,0,0,0,0,0,0,0,0,0,0,0,0,0,0,0,0,0,0,0,0,0,0,0,0,0,0,0,0,0,0,0,0,0,0,0,0,0,0,0,0,0,0,0,0,0,0,0,0,0,0,0,0,0,0],"sum_hessian":[2.527192E3,1.2640935E3,1.2630984E3,1.2393402E3,2.4753376E1,1.2429572E3,2.0141247E1,1.2268267E3,1.2513532E1,6.6526766E0,1.8100698E1,3.2934387E1,1.2100227E3,1.896096E1,1.1802877E0,1.2247312E3,2.0954862E0,6.9659576E0,5.5475745E0,1.6572609E1,1.5280895E0,2.8579657E1,4.354733E0,5.4987345E0,1.204524E3,1.2162814E1,6.7981453E0,4.0721947E1,1.1840092E3,2.5062912E0,4.4596663E0,2.3388877E0,3.2086868E0,1.1010145E1,5.5624633E0,8.407947E0,2.017171E1,2.6909676E0,1.6637652E0,3.7998395E0,1.6988951E0,9.717223E0,2.4455917E0,3.713864E1,3.5833068E0,1.0974042E0,1.4088869E0,1.4879137E0,2.9717526E0,1.1634336E0,1.175454E0,9.255867E0,1.7542782E0,1.4309773E0,4.131486E0,4.075721E0,4.3322263E0,2.6240046E0,1.7547705E1,1.1802877E0,8.536935E0],"tree_param":{"num_deleted":"0","num_feature":"18","num_nodes":"61","size_leaf_vector":"1"}},{"base_weights":[9.82118E-4,-1.2223468E0,1.2257284E0,-1.2453933E0,-8.171915E-2,1.2563092E0,-6.164722E-1,-1.2562538E0,-1.872293E-1,-6.311677E-1,1.0059803E0,9.069614E-1,1.2651482E0,-7.3993313E-1,3.8862776E-2,-1.2596724E0,2.3065338E-2,3.8693845E-1,-8.5898334E-1,-7.822995E-1,2.8626436E-2,-5.489863E-4,5.7788808E-2,9.968334E-1,2.4126153E-1,7.306752E-1,6.3350074E-2,-4.5074183E-1,-5.654485E-2,-1.0170045E0,-6.336003E-2,-4.3424726E-1,8.473648E-1,-9.768913E-1,-7.095103E-3,-9.973866E-1,-1.3632408E-1,6.106011E-2,7.4779713E-1,4.9003616E-2,-4.3424886E-2,5.158284E-2,-3.182926E-3,-8.6583203E-1,4.798074E-2,-5.7240505E-2,1.1211241E-3,-3.8384266E-2,1.7270232E-3,1.2658523E-2,5.043444E-2,-8.047359E-3,-5.74965E-2,-5.3011693E-2,-2.018324E-2,4.1220833E-2,-3.6083322E-2,4.892392E-2,1.1998737E-2,3.8862776E-2,-5.7784546E-2],"categories":[],"categories_nodes":[],"categories_segments":[],"categories_sizes":[],"default_left":[0,0,0,0,0,0,0,0,0,0,0,0,0,0,0,0,0,0,0,0,0,0,0,0,0,0,0,0,0,0,0,0,0,0,0,0,0,0,0,0,0,0,0,0,0,0,0,0,0,0,0,0,0,0,0,0,0,0,0,0,0],"id":17,"left_children":[1,3,5,7,9,11,13,15,17,19,21,23,25,27,-1,29,-1,31,33,35,-1,-1,-1,37,39,41,-1,43,-1,45,-1,47,49,51,-1,53,55,-1,57,-1,-1,-1,-1,59,-1,-1,-1,-1,-1,-1,-1,-1,-1,-1,-1,-1,-1,-1,-1,-1,-1],"loss_changes":[3.6567498E3,3.1995972E1,6.948279E1,1.3518555E1,1.5726863E1,2.5579834E0,4.1173735E0,7.5357666E0,5.475147E0,3.6117969E0,1.3624954E0,1.7425289E0,2.3132324E-1,1.6863012E0,0E0,8.713379E-1,0E0,3.3467622E0,4.0716124E-1,2.0696583E0,0E0,0E0,0E0,7.0069504E-1,5.165383E0,1.5953434E0,0E0,8.340364E0,0E0,5.4246063E0,0E0,5.722845E-1,2.6100492E-1,5.7363796E-1,0E0,1.0491371E-2,3.4763107E0,0E0,1.6710234E0,0E0,0E0,0E0,0E0,5.8686852E0,0E0,0E0,0E0,0E0,0E0,0E0,0E0,0E0,0E0,0E0,0E0,0E0,0E0,0E0,0E0,0E0,0E0],"parents":[2147483647,0,0,1,1,2,2,3,3,4,4,5,5,6,6,7,7,8,8,9,9,10,10,11,11,12,12,13,13,15,15,17,17,18,18,19,19,23,23,24,24,25,25,27,27,29,29,31,31,32,32,33,33,35,35,36,36,38,38,43,43],"right_children":[2,4,6,8,10,12,14,16,18,20,22,24,26,28,-1,30,-1,32,34,36,-1,-1,-1,38,40,42,-1,44,-1,46,-1,48,50,52,-1,54,56,-1,58,-1,-1,-1,-1,60,-1,-1,-1,-1,-1,-1,-1,-1,-1,-1,-1,-1,-1,-1,-1,-1,-1],"split_conditions":[1.8E-1,1E0,1E0,-6E-2,1.4453277E-3,9.45022E-4,1.77575E3,1E0,5.6701316E-3,2.224E1,3.07E0,8.8943244E-4,3.9E-1,1.4453277E-3,3.8862776E-2,9.45022E-4,2.3065338E-2,4.22E0,8.65E0,1.265E1,2.8626436E-2,-5.489863E-4,5.7788808E-2,6.73E0,3.5206E2,5.6701316E-3,6.3350074E-2,9.45022E-4,-5.654485E-2,8.8943244E-4,-6.336003E-2,1.38E0,2.112402E-3,7.32E0,-7.095103E-3,1.251E1,5.0030573E-4,6.106011E-2,2.93727E3,4.9003616E-2,-4.3424886E-2,5.158284E-2,-3.182926E-3,2.782E1,4.798074E-2,-5.7240505E-2,1.1211241E-3,-3.8384266E-2,1.7270232E-3,1.2658523E-2,5.043444E-2,-8.047359E-3,-5.74965E-2,-5.3011693E-2,-2.018324E-2,4.1220833E-2,-3.6083322E-2,4.892392E-2,1.1998737E-2,3.8862776E-2,-5.7784546E-2],"split_indices":[1,13,13,1,17,17,4,15,17,0,0,17,1,17,0,17,0,0,0,2,0,0,0,0,4,17,0,17,0,17,0,4,17,2,0,0,17,0,5,0,0,0,0,4,0,0,0,0,0,0,0,0,0,0,0,0,0,0,0,0,0],"split_type":[0,0,0,0,0,0,0,0,0,0,0,0,0,0,0,0,0,0,0,0,0,0,0,0,0,0,0,0,0,0,0,0,0,0,0,0,0,0,0,0,0,0,0,0,0,0,0,0,0,0,0,0,0,0,0,0,0,0,0,0,0],"sum_hessian":[2.438652E3,1.2200331E3,1.2186191E3,1.1957803E3,2.4252745E1,1.1990331E3,1.9586018E1,1.1834467E3,1.2333626E1,1.639206E1,7.860685E0,3.214563E1,1.1668875E3,1.8423134E1,1.1628835E0,1.1813619E3,2.0847518E0,6.878424E0,5.455201E0,1.4874551E1,1.5175095E0,1.1281831E0,6.7325015E0,2.7883793E1,4.2618384E0,5.398156E0,1.1614893E3,1.1827428E1,6.595707E0,3.9640953E1,1.141721E3,2.491539E0,4.386885E0,4.373725E0,1.0814766E0,1.0750884E1,4.123667E0,1.2614798E1,1.5268994E1,2.6286814E0,1.6331571E0,3.6981268E0,1.7000296E0,9.436274E0,2.3911538E0,3.5210197E1,4.430756E0,1.0833676E0,1.4081714E0,1.4853439E0,2.901541E0,1.1029614E0,3.2707634E0,9.011271E0,1.7396127E0,1.4065756E0,2.717091E0,9.862214E0,5.4067807E0,1.1628835E0,8.27339E0],"tree_param":{"num_deleted":"0","num_feature":"18","num_nodes":"61","size_leaf_vector":"1"}},{"base_weights":[1.0213784E-3,-1.2053921E0,1.209217E0,-1.2284957E0,-7.859503E-2,1.2395382E0,-6.017319E-1,-1.2394744E0,-1.8361141E-1,5.6650627E-2,-5.5247533E-1,8.8582534E-1,1.248622E0,-7.2483456E-1,3.8135666E-2,-1.2429368E0,2.236685E-2,-5.0281966E-1,4.6338513E-2,-6.8414104E-1,2.7886594E-2,9.73679E-1,2.3455665E-1,7.132161E-1,6.2525906E-2,-4.377468E-1,-5.5593815E-2,-9.9530286E-1,-6.253504E-2,-5.601837E-2,8.478407E-2,-9.7563374E-1,-5.8277972E-2,6.0062982E-2,7.2533196E-1,4.8071917E-2,-4.2587455E-2,5.0666314E-2,-3.0814407E-3,-8.476404E-1,4.706205E-2,-5.558754E-2,7.89531E-3,-3.284003E-2,2.7601609E-2,-2.9316762E-2,-5.6452006E-2,4.0438425E-2,-2.2729894E-2,4.77138E-2,1.1526905E-2,3.8135666E-2,-5.6845326E-2],"categories":[],"categories_nodes":[],"categories_segments":[],"categories_sizes":[],"default_left":[0,0,0,0,0,0,0,0,0,0,0,0,0,0,0,0,0,0,0,0,0,0,0,0,0,0,0,0,0,0,0,0,0,0,0,0,0,0,0,0,0,0,0,0,0,0,0,0,0,0,0,0,0],"id":18,"left_children":[1,3,5,7,9,11,13,15,17,-1,19,21,23,25,-1,27,-1,29,-1,31,-1,33,35,37,-1,39,-1,41,-1,-1,43,45,47,-1,49,-1,-1,-1,-1,51,-1,-1,-1,-1,-1,-1,-1,-1,-1,-1,-1,-1,-1],"loss_changes":[3.4301477E3,3.0557983E1,6.530835E1,1.3008301E1,1.4823076E1,2.6107178E0,3.9181418E0,7.223633E0,5.1343565E0,0E0,3.0780888E0,1.6257057E0,2.5048828E-1,1.6122618E0,0E0,9.46167E-1,0E0,4.042452E0,0E0,3.0336509E0,0E0,7.2454834E-1,4.9004745E0,1.527106E0,0E0,7.8604198E0,0E0,5.48518E0,0E0,0E0,2.616226E0,2.4435043E-2,2.5828216E0,0E0,1.5954227E0,0E0,0E0,0E0,0E0,5.5989594E0,0E0,0E0,0E0,0E0,0E0,0E0,0E0,0E0,0E0,0E0,0E0,0E0,0E0],"parents":[2147483647,0,0,1,1,2,2,3,3,4,4,5,5,6,6,7,7,8,8,10,10,11,11,12,12,13,13,15,15,17,17,19,19,21,21,22,22,23,23,25,25,27,27,30,30,31,31,32,32,34,34,39,39],"right_children":[2,4,6,8,10,12,14,16,18,-1,20,22,24,26,-1,28,-1,30,-1,32,-1,34,36,38,-1,40,-1,42,-1,-1,44,46,48,-1,50,-1,-1,-1,-1,52,-1,-1,-1,-1,-1,-1,-1,-1,-1,-1,-1,-1,-1],"split_conditions":[1.8E-1,1E0,1E0,-6E-2,1.234E1,9.45022E-4,1.77575E3,1E0,1.038E1,5.6650627E-2,2.224E1,8.8943244E-4,3.9E-1,1.4453277E-3,3.8135666E-2,9.45022E-4,2.236685E-2,9.4E-1,4.6338513E-2,1.265E1,2.7886594E-2,6.73E0,3.5206E2,5.6701316E-3,6.2525906E-2,9.45022E-4,-5.5593815E-2,5E0,-6.253504E-2,-5.601837E-2,2.57E0,-3.753E1,5.0030573E-4,6.0062982E-2,2.93727E3,4.8071917E-2,-4.2587455E-2,5.0666314E-2,-3.0814407E-3,2.782E1,4.706205E-2,-5.558754E-2,7.89531E-3,-3.284003E-2,2.7601609E-2,-2.9316762E-2,-5.6452006E-2,4.0438425E-2,-2.2729894E-2,4.77138E-2,1.1526905E-2,3.8135666E-2,-5.6845326E-2],"split_indices":[1,13,13,1,4,17,4,15,0,0,0,17,1,17,0,17,0,4,0,2,0,0,4,17,0,17,0,3,0,0,0,1,17,0,5,0,0,0,0,4,0,0,0,0,0,0,0,0,0,0,0,0,0],"split_type":[0,0,0,0,0,0,0,0,0,0,0,0,0,0,0,0,0,0,0,0,0,0,0,0,0,0,0,0,0,0,0,0,0,0,0,0,0,0,0,0,0,0,0,0,0,0,0,0,0,0,0,0,0],"sum_hessian":[2.3513113E3,1.1765244E3,1.1747869E3,1.1527976E3,2.3726887E1,1.1557513E3,1.9035507E1,1.1406266E3,1.2170971E1,6.2798266E0,1.744706E1,3.1404882E1,1.1243464E3,1.7890192E1,1.145315E0,1.1385527E3,2.0738704E0,9.878346E0,2.292624E0,1.5940373E1,1.5066867E0,2.7235825E1,4.169059E0,5.298542E0,1.1190479E3,1.1494881E1,6.3953104E0,3.853885E1,1.1000139E3,4.374379E0,5.503968E0,1.0493988E1,5.4463854E0,1.2209889E1,1.5025934E1,2.5666072E0,1.6024514E0,3.597422E0,1.7011203E0,9.15804E0,2.3368409E0,3.503687E1,3.5019789E0,1.9706333E0,3.5333343E0,4.3293996E0,6.164588E0,1.3820713E0,4.064314E0,9.637823E0,5.3881116E0,1.145315E0,8.012725E0],"tree_param":{"num_deleted":"0","num_feature":"18","num_nodes":"53","size_leaf_vector":"1"}},{"base_weights":[1.0778308E-3,-1.1894947E0,1.193853E0,-1.2127221E0,-7.54848E-2,1.2239459E0,-5.876035E-1,-1.2238266E0,-1.7834689E-1,5.568544E-2,-5.359006E-1,8.65512E-1,1.2332937E0,-7.104286E-1,3.743398E-2,-1.2273378E0,2.1691846E-2,3.7136945E-1,-8.24186E-1,-6.654436E-1,2.7170992E-2,9.514054E-1,2.2812693E-1,6.96388E-1,6.1761852E-2,-4.2523426E-1,-5.4689713E-2,-9.732921E-1,-6.177024E-2,-4.061364E-1,8.1220114E-1,-2.997318E-1,-5.232231E-2,-9.5516527E-1,-5.2889355E-2,2.757904E-1,1.0090523E0,4.7178764E-2,-4.178181E-2,4.9788244E-2,-2.9832236E-3,-8.3023936E-1,4.618077E-2,-5.5373073E-2,3.1807383E-3,-3.7022326E-2,2.4482682E-3,1.1924046E-2,4.8675444E-2,-3.4482654E-2,1.0742433E-2,-5.6272447E-2,-2.8984169E-2,3.968441E-2,-2.1883573E-2,4.51339E-2,-3.1608824E-2,2.8438935E-2,5.922509E-2,3.743398E-2,-5.5954732E-2],"categories":[],"categories_nodes":[],"categories_segments":[],"categories_sizes":[],"default_left":[0,0,0,0,0,0,0,0,0,0,0,0,0,0,0,0,0,0,0,0,0,0,0,0,0,0,0,0,0,0,0,0,0,0,0,0,0,0,0,0,0,0,0,0,0,0,0,0,0,0,0,0,0,0,0,0,0,0,0,0,0],"id":19,"left_children":[1,3,5,7,9,11,13,15,17,-1,19,21,23,25,-1,27,-1,29,31,33,-1,35,37,39,-1,41,-1,43,-1,45,47,49,-1,51,53,55,57,-1,-1,-1,-1,59,-1,-1,-1,-1,-1,-1,-1,-1,-1,-1,-1,-1,-1,-1,-1,-1,-1,-1,-1],"loss_changes":[3.219983E3,2.9271484E1,6.1441162E1,1.2549194E1,1.3870706E1,2.6656494E0,3.7309775E0,6.932251E0,4.9132247E0,0E0,2.8996148E0,1.5169315E0,2.705078E-1,1.5426521E0,0E0,1.0467529E0,0E0,2.9688506E0,4.1807127E-1,2.9055037E0,0E0,7.964878E-1,4.6521826E0,1.4627838E0,0E0,7.4130793E0,0E0,5.425316E0,0E0,5.615447E-1,2.534151E-1,8.0425644E-1,0E0,6.686592E-2,2.4344468E0,2.5887854E0,1.2612915E0,0E0,0E0,0E0,0E0,5.3454213E0,0E0,0E0,0E0,0E0,0E0,0E0,0E0,0E0,0E0,0E0,0E0,0E0,0E0,0E0,0E0,0E0,0E0,0E0,0E0],"parents":[2147483647,0,0,1,1,2,2,3,3,4,4,5,5,6,6,7,7,8,8,10,10,11,11,12,12,13,13,15,15,17,17,18,18,19,19,21,21,22,22,23,23,25,25,27,27,29,29,30,30,31,31,33,33,34,34,35,35,36,36,41,41],"right_children":[2,4,6,8,10,12,14,16,18,-1,20,22,24,26,-1,28,-1,30,32,34,-1,36,38,40,-1,42,-1,44,-1,46,48,50,-1,52,54,56,58,-1,-1,-1,-1,60,-1,-1,-1,-1,-1,-1,-1,-1,-1,-1,-1,-1,-1,-1,-1,-1,-1,-1,-1],"split_conditions":[1.8E-1,1E0,1E0,-6E-2,1.234E1,9.45022E-4,1.77575E3,1E0,5.6701316E-3,5.568544E-2,2.224E1,8.8943244E-4,3.9E-1,1.4453277E-3,3.743398E-2,9.45022E-4,2.1691846E-2,4.22E0,8.29E0,1.265E1,2.7170992E-2,8.31E0,3.5206E2,5.6701316E-3,6.1761852E-2,9.45022E-4,-5.4689713E-2,8.8943244E-4,-6.177024E-2,3E0,2.112402E-3,9.4E-1,-5.232231E-2,7.226638E-4,5.0030573E-4,3.78E0,4.4471622E-4,4.7178764E-2,-4.178181E-2,4.9788244E-2,-2.9832236E-3,2.782E1,4.618077E-2,-5.5373073E-2,3.1807383E-3,-3.7022326E-2,2.4482682E-3,1.1924046E-2,4.8675444E-2,-3.4482654E-2,1.0742433E-2,-5.6272447E-2,-2.8984169E-2,3.968441E-2,-2.1883573E-2,4.51339E-2,-3.1608824E-2,2.8438935E-2,5.922509E-2,3.743398E-2,-5.5954732E-2],"split_indices":[1,13,13,1,4,17,4,15,17,0,0,17,1,17,0,17,0,0,2,2,0,5,4,17,0,17,0,17,0,6,17,4,0,17,17,4,17,0,0,0,0,4,0,0,0,0,0,0,0,0,0,0,0,0,0,0,0,0,0,0,0],"split_type":[0,0,0,0,0,0,0,0,0,0,0,0,0,0,0,0,0,0,0,0,0,0,0,0,0,0,0,0,0,0,0,0,0,0,0,0,0,0,0,0,0,0,0,0,0,0,0,0,0,0,0,0,0,0,0,0,0,0,0,0,0],"sum_hessian":[2.2654575E3,1.133777E3,1.1316805E3,1.1105334E3,2.3243467E1,1.1131892E3,1.8491323E1,1.0985566E3,1.1976843E1,6.091361E0,1.7152105E1,3.0672377E1,1.0825168E3,1.7363686E1,1.1276373E0,1.0964938E3,2.0628834E0,6.699466E0,5.2773767E0,1.5656438E1,1.4956679E0,2.6595695E1,4.07668E0,5.2001553E0,1.0773167E3,1.1166149E1,6.1975374E0,3.74907E1,1.059003E3,2.452549E0,4.2469172E0,2.2698674E0,3.0075092E0,1.0249421E1,5.4070163E0,2.5456045E0,2.405009E1,2.5049355E0,1.5717448E0,3.4979868E0,1.7021687E0,8.8833275E0,2.2828214E0,3.3135174E1,4.3555284E0,1.0524474E0,1.4001015E0,1.4759289E0,2.7709885E0,1.0977943E0,1.1720731E0,5.677356E0,4.572066E0,1.3575374E0,4.0494785E0,1.5093374E0,1.0362669E0,8.0617485E0,1.5988342E1,1.1276373E0,7.75569E0],"tree_param":{"num_deleted":"0","num_feature":"18","num_nodes":"61","size_leaf_vector":"1"}},{"base_weights":[1.1097419E-3,-1.1746726E0,1.1795399E0,-1.1980597E0,-7.248741E-2,1.209434E0,-5.74028E-1,-1.2092912E0,-1.7576241E-1,-5.847905E-1,9.5271313E-1,8.461179E-1,1.2190522E0,-6.966483E-1,3.675617E-2,-1.2128562E0,2.1039251E-2,3.604272E-1,-8.072089E-1,-1.9568905E-1,-5.6433123E-2,-1.6578144E-3,5.5450797E-2,9.301994E-1,2.2195165E-1,6.8014467E-1,6.105238E-2,-4.131579E-1,-5.382789E-2,-9.53064E-1,-6.106009E-2,-3.9765665E-1,7.9432684E-1,-9.265503E-1,-5.473646E-3,-7.9913646E-1,7.862178E-2,5.8435258E-2,6.782582E-1,4.632093E-2,-4.100571E-2,4.894517E-2,-2.8881622E-3,-8.135509E-1,4.5333833E-2,-5.371442E-2,9.676132E-3,-3.6351364E-2,2.3765601E-3,1.158138E-2,4.7784965E-2,-6.6680363E-3,-5.5048402E-2,-5.527691E-2,3.5696172E-3,4.5614712E-2,9.588787E-3,3.675617E-2,-5.510788E-2],"categories":[],"categories_nodes":[],"categories_segments":[],"categories_sizes":[],"default_left":[0,0,0,0,0,0,0,0,0,0,0,0,0,0,0,0,0,0,0,0,0,0,0,0,0,0,0,0,0,0,0,0,0,0,0,0,0,0,0,0,0,0,0,0,0,0,0,0,0,0,0,0,0,0,0,0,0,0,0],"id":20,"left_children":[1,3,5,7,9,11,13,15,17,19,21,23,25,27,-1,29,-1,31,33,35,-1,-1,-1,37,39,41,-1,43,-1,45,-1,47,49,51,-1,53,-1,-1,55,-1,-1,-1,-1,57,-1,-1,-1,-1,-1,-1,-1,-1,-1,-1,-1,-1,-1,-1,-1],"loss_changes":[3.0250076E3,2.8082886E1,5.785315E1,1.2073975E1,1.304209E1,2.7161865E0,3.554916E0,6.6601562E0,4.624227E0,3.2645736E0,1.3159094E0,1.4166107E0,2.9052734E-1,1.4771223E0,0E0,1.1262207E0,0E0,2.819926E0,4.1366196E-1,1.2791552E1,0E0,0E0,0E0,8.2624626E-1,4.419229E0,1.4020386E0,0E0,6.9955916E0,0E0,5.410183E0,0E0,5.386061E-1,2.4855995E-1,5.6544065E-1,0E0,2.4056625E0,0E0,0E0,1.5880694E0,0E0,0E0,0E0,0E0,5.1067443E0,0E0,0E0,0E0,0E0,0E0,0E0,0E0,0E0,0E0,0E0,0E0,0E0,0E0,0E0,0E0],"parents":[2147483647,0,0,1,1,2,2,3,3,4,4,5,5,6,6,7,7,8,8,9,9,10,10,11,11,12,12,13,13,15,15,17,17,18,18,19,19,23,23,24,24,25,25,27,27,29,29,31,31,32,32,33,33,35,35,38,38,43,43],"right_children":[2,4,6,8,10,12,14,16,18,20,22,24,26,28,-1,30,-1,32,34,36,-1,-1,-1,38,40,42,-1,44,-1,46,-1,48,50,52,-1,54,-1,-1,56,-1,-1,-1,-1,58,-1,-1,-1,-1,-1,-1,-1,-1,-1,-1,-1,-1,-1,-1,-1],"split_conditions":[1.8E-1,1E0,1E0,-6E-2,1.4453277E-3,9.45022E-4,1.77575E3,1E0,5.6701316E-3,9.45022E-4,3.07E0,8.8943244E-4,3.9E-1,1.4453277E-3,3.675617E-2,9.45022E-4,2.1039251E-2,4.22E0,8.65E0,7.226638E-4,-5.6433123E-2,-1.6578144E-3,5.5450797E-2,6.73E0,3.5206E2,5.6701316E-3,6.105238E-2,9.45022E-4,-5.382789E-2,5E0,-6.106009E-2,3E0,2.112402E-3,7.32E0,-5.473646E-3,1.265E1,7.862178E-2,5.8435258E-2,2.93727E3,4.632093E-2,-4.100571E-2,4.894517E-2,-2.8881622E-3,2.782E1,4.5333833E-2,-5.371442E-2,9.676132E-3,-3.6351364E-2,2.3765601E-3,1.158138E-2,4.7784965E-2,-6.6680363E-3,-5.5048402E-2,-5.527691E-2,3.5696172E-3,4.5614712E-2,9.588787E-3,3.675617E-2,-5.510788E-2],"split_indices":[1,13,13,1,17,17,4,15,17,17,0,17,1,17,0,17,0,0,0,17,0,0,0,0,4,17,0,17,0,3,0,6,17,2,0,2,0,0,5,0,0,0,0,4,0,0,0,0,0,0,0,0,0,0,0,0,0,0,0],"split_type":[0,0,0,0,0,0,0,0,0,0,0,0,0,0,0,0,0,0,0,0,0,0,0,0,0,0,0,0,0,0,0,0,0,0,0,0,0,0,0,0,0,0,0,0,0,0,0,0,0,0,0,0,0,0,0,0,0,0,0],"sum_hessian":[2.1812107E3,1.0918336E3,1.0893772E3,1.0690625E3,2.2771196E1,1.0714224E3,1.7954838E1,1.0572638E3,1.1798602E1,1.5470176E1,7.30102E0,2.9926947E1,1.0414954E3,1.6844938E1,1.109901E0,1.055212E3,2.0518284E0,6.612681E0,5.185921E0,9.810949E0,5.6592264E0,1.1069403E0,6.19408E0,2.5941992E1,3.9849553E0,5.1032195E0,1.0363922E3,1.0842055E1,6.002882E0,3.6428047E1,1.01878394E3,2.4375196E0,4.1751614E0,4.1484313E0,1.0374898E0,7.7231345E0,2.0878148E0,1.1457085E1,1.4484906E1,2.443832E0,1.5411233E0,3.4000425E0,1.703177E0,8.612816E0,2.2292395E0,3.300193E1,3.426117E0,1.0371258E0,1.4003937E0,1.4732742E0,2.7018874E0,1.0658646E0,3.0825667E0,5.5128155E0,2.2103188E0,9.188996E0,5.2959104E0,1.109901E0,7.502915E0],"tree_param":{"num_deleted":"0","num_feature":"18","num_nodes":"59","size_leaf_vector":"1"}},{"base_weights":[1.1588904E-3,-1.1607636E0,1.1661563E0,-1.1842779E0,-6.952563E-2,1.1958774E0,-5.609533E-1,-1.1956774E0,-1.7244424E-1,5.4040845E-2,-5.076343E-1,8.27165E-1,1.2057999E0,-6.8343425E-1,3.610082E-2,-1.199301E0,2.040805E-2,3.4987935E-1,-7.874718E-1,-7.270014E-1,1.5265355E-1,5.568152E-1,5.3448178E-2,6.644449E-1,6.03926E-2,-4.0147677E-1,-5.3004205E-2,-9.323836E-1,-6.0399678E-2,-3.8945016E-1,7.770636E-1,-4.8881184E-2,-1.1677974E-2,-9.797834E-2,-5.5046678E-2,-3.1963814E-2,8.7615013E-1,7.229508E-1,-4.791997E-2,4.8133988E-2,-2.796147E-3,-7.975065E-1,4.4518545E-2,-5.3669255E-2,5.097411E-3,-3.5834868E-2,2.4508955E-3,1.1248896E-2,4.692964E-2,-2.2486614E-2,4.005936E-2,5.2568894E-2,1.4260194E-2,4.6986222E-2,1.8431269E-2,3.610082E-2,-5.430044E-2],"categories":[],"categories_nodes":[],"categories_segments":[],"categories_sizes":[],"default_left":[0,0,0,0,0,0,0,0,0,0,0,0,0,0,0,0,0,0,0,0,0,0,0,0,0,0,0,0,0,0,0,0,0,0,0,0,0,0,0,0,0,0,0,0,0,0,0,0,0,0,0,0,0,0,0,0,0],"id":21,"left_children":[1,3,5,7,9,11,13,15,17,-1,19,21,23,25,-1,27,-1,29,31,33,35,37,-1,39,-1,41,-1,43,-1,45,47,-1,-1,49,-1,-1,51,53,-1,-1,-1,55,-1,-1,-1,-1,-1,-1,-1,-1,-1,-1,-1,-1,-1,-1,-1],"loss_changes":[2.843708E3,2.6906006E1,5.4517944E1,1.1668823E1,1.2265281E1,2.7767334E0,3.3890882E0,6.4052734E0,4.3354697E0,0E0,2.6481977E0,1.3801556E0,3.109131E-1,1.41537E0,0E0,1.2304688E0,0E0,2.6797392E0,4.1539502E-1,3.0256171E0,3.536484E0,4.809693E0,0E0,1.3445702E0,0E0,6.605513E0,0E0,5.4213123E0,0E0,5.2620405E-1,2.4401426E-1,0E0,0E0,2.2784371E0,0E0,0E0,2.4929762E-2,8.293848E-1,0E0,0E0,0E0,4.881742E0,0E0,0E0,0E0,0E0,0E0,0E0,0E0,0E0,0E0,0E0,0E0,0E0,0E0,0E0,0E0],"parents":[2147483647,0,0,1,1,2,2,3,3,4,4,5,5,6,6,7,7,8,8,10,10,11,11,12,12,13,13,15,15,17,17,18,18,19,19,20,20,21,21,23,23,25,25,27,27,29,29,30,30,33,33,36,36,37,37,41,41],"right_children":[2,4,6,8,10,12,14,16,18,-1,20,22,24,26,-1,28,-1,30,32,34,36,38,-1,40,-1,42,-1,44,-1,46,48,-1,-1,50,-1,-1,52,54,-1,-1,-1,56,-1,-1,-1,-1,-1,-1,-1,-1,-1,-1,-1,-1,-1,-1,-1],"split_conditions":[1.8E-1,1E0,1E0,-6E-2,1.234E1,9.45022E-4,1.77575E3,1E0,5.6701316E-3,5.4040845E-2,5E0,5E0,3.9E-1,1.4453277E-3,3.610082E-2,9.45022E-4,2.040805E-2,4.22E0,9.4E-1,3E0,3.92E0,4E0,5.3448178E-2,5.6701316E-3,6.03926E-2,9.45022E-4,-5.3004205E-2,8.8943244E-4,-6.0399678E-2,1.38E0,2.112402E-3,-4.8881184E-2,-1.1677974E-2,8.54E0,-5.5046678E-2,-3.1963814E-2,1.58E1,8.5363E2,-4.791997E-2,4.8133988E-2,-2.796147E-3,2.782E1,4.4518545E-2,-5.3669255E-2,5.097411E-3,-3.5834868E-2,2.4508955E-3,1.1248896E-2,4.692964E-2,-2.2486614E-2,4.005936E-2,5.2568894E-2,1.4260194E-2,4.6986222E-2,1.8431269E-2,3.610082E-2,-5.430044E-2],"split_indices":[1,13,13,1,4,17,4,15,17,0,3,3,1,17,0,17,0,0,4,6,0,6,0,17,0,17,0,17,0,4,17,0,0,0,0,0,2,5,0,0,0,4,0,0,0,0,0,0,0,0,0,0,0,0,0,0,0],"split_type":[0,0,0,0,0,0,0,0,0,0,0,0,0,0,0,0,0,0,0,0,0,0,0,0,0,0,0,0,0,0,0,0,0,0,0,0,0,0,0,0,0,0,0,0,0,0,0,0,0,0,0,0,0,0,0,0,0],"sum_hessian":[2.0987913E3,1.0507842E3,1.048007E3,1.0285358E3,2.2248419E1,1.0305798E3,1.7427204E1,1.0168975E3,1.1638237E1,5.7316947E0,1.6516726E1,2.9218245E1,1.0013616E3,1.6335054E1,1.092151E0,1.01485675E3,2.0407386E0,6.526555E0,5.1116824E0,1.2321965E1,4.1947594E0,1.5354032E1,1.3864213E1,5.007921E0,9.9635364E2,1.05233E1,5.8117537E0,3.5422077E1,9.794347E2,2.422411E0,4.104144E0,3.235893E0,1.8757895E0,5.0645223E0,7.2574434E0,2.0582423E0,2.1365173E0,1.4308094E1,1.0459374E0,3.3037744E0,1.7041467E0,8.347076E0,2.1762238E0,3.1139359E1,4.2827177E0,1.0237756E0,1.3986353E0,1.4706051E0,2.6335387E0,3.9996796E0,1.0648426E0,1.046936E0,1.0895813E0,7.852092E0,6.456002E0,1.092151E0,7.2549253E0],"tree_param":{"num_deleted":"0","num_feature":"18","num_nodes":"57","size_leaf_vector":"1"}},{"base_weights":[1.2002012E-3,-1.1476038E0,1.1535381E0,-1.171423E0,-6.502556E-2,1.1831082E0,-5.4833335E-1,-1.1829911E0,-1.6908847E-1,-5.523491E-1,9.20321E-1,8.0615866E-1,1.1934496E0,-6.707337E-1,3.5466623E-2,-1.1866786E0,1.9797312E-2,-4.5661655E-1,4.294816E-2,-1.703175E-1,-5.4757714E-2,-1.880705E-3,5.3964652E-2,5.381775E-1,1.0492836E0,6.4925265E-1,5.977815E-2,-3.9015502E-1,-5.221497E-2,-9.1332364E-1,-5.9784662E-2,-5.3165074E-2,8.9568935E-2,-7.5828844E-1,7.462823E-2,7.019126E-1,-4.6908833E-2,1.7520953E-2,1.0882431E0,5.1041286E-2,2.1040082E-2,-7.820451E-1,4.373245E-2,-5.1986665E-2,1.13279885E-2,-3.0636687E-2,2.6453262E-2,-5.362317E-2,4.403068E-3,4.5950383E-2,1.7712358E-2,1.8029485E-2,5.6754213E-2,3.210011E-2,-2.9335773E-2,3.5466623E-2,-5.3528525E-2],"categories":[],"categories_nodes":[],"categories_segments":[],"categories_sizes":[],"default_left":[0,0,0,0,0,0,0,0,0,0,0,0,0,0,0,0,0,0,0,0,0,0,0,0,0,0,0,0,0,0,0,0,0,0,0,0,0,0,0,0,0,0,0,0,0,0,0,0,0,0,0,0,0,0,0,0,0],"id":22,"left_children":[1,3,5,7,9,11,13,15,17,19,21,23,25,27,-1,29,-1,31,-1,33,-1,-1,-1,35,37,39,-1,41,-1,43,-1,-1,45,47,-1,49,-1,-1,51,-1,53,55,-1,-1,-1,-1,-1,-1,-1,-1,-1,-1,-1,-1,-1,-1,-1],"loss_changes":[2.674636E3,2.6013062E1,5.140857E1,1.127832E1,1.1475918E1,2.9040527E0,3.2327194E0,6.166748E0,4.0756936E0,3.1121325E0,1.2487063E0,1.3614178E0,3.314209E-1,1.3571095E0,0E0,1.3139648E0,0E0,3.5383294E0,0E0,1.1417882E1,0E0,0E0,0E0,4.554164E0,1.2024879E-2,1.3591056E0,0E0,6.2406397E0,0E0,5.337343E0,0E0,0E0,2.2966025E0,2.3374228E0,0E0,8.1253767E-1,0E0,0E0,4.0937424E-2,0E0,1.5915594E0,4.669349E0,0E0,0E0,0E0,0E0,0E0,0E0,0E0,0E0,0E0,0E0,0E0,0E0,0E0,0E0,0E0],"parents":[2147483647,0,0,1,1,2,2,3,3,4,4,5,5,6,6,7,7,8,8,9,9,10,10,11,11,12,12,13,13,15,15,17,17,19,19,23,23,24,24,25,25,27,27,29,29,32,32,33,33,35,35,38,38,40,40,41,41],"right_children":[2,4,6,8,10,12,14,16,18,20,22,24,26,28,-1,30,-1,32,-1,34,-1,-1,-1,36,38,40,-1,42,-1,44,-1,-1,46,48,-1,50,-1,-1,52,-1,54,56,-1,-1,-1,-1,-1,-1,-1,-1,-1,-1,-1,-1,-1,-1,-1],"split_conditions":[1.8E-1,1E0,1E0,-6E-2,1.4453277E-3,9.45022E-4,1.77575E3,1E0,1.038E1,9.45022E-4,3.07E0,5E0,3.9E-1,1.4453277E-3,3.5466623E-2,9.45022E-4,1.9797312E-2,9.4E-1,4.294816E-2,7.226638E-4,-5.4757714E-2,-1.880705E-3,5.3964652E-2,4E0,6.4E-1,8.18E0,5.977815E-2,9.45022E-4,-5.221497E-2,5E0,-5.9784662E-2,-5.3165074E-2,2.57E0,1.265E1,7.462823E-2,8.5363E2,-4.6908833E-2,1.7520953E-2,2.7794763E-4,5.1041286E-2,7.35E0,2.782E1,4.373245E-2,-5.1986665E-2,1.13279885E-2,-3.0636687E-2,2.6453262E-2,-5.362317E-2,4.403068E-3,4.5950383E-2,1.7712358E-2,1.8029485E-2,5.6754213E-2,3.210011E-2,-2.9335773E-2,3.5466623E-2,-5.3528525E-2],"split_indices":[1,13,13,1,17,17,4,15,0,17,0,3,1,17,0,17,0,4,0,17,0,0,0,6,1,2,0,17,0,3,0,0,0,2,0,5,0,0,17,0,0,4,0,0,0,0,0,0,0,0,0,0,0,0,0,0,0],"split_type":[0,0,0,0,0,0,0,0,0,0,0,0,0,0,0,0,0,0,0,0,0,0,0,0,0,0,0,0,0,0,0,0,0,0,0,0,0,0,0,0,0,0,0,0,0,0,0,0,0,0,0,0,0,0,0,0,0],"sum_hessian":[2.0184072E3,1.01075555E3,1.0076517E3,9.889151E2,2.1840435E1,9.907423E2,1.6909382E1,9.774538E2,1.1461283E1,1.4907205E1,6.93323E0,2.856303E1,9.6217926E2,1.5834954E1,1.0744277E0,9.754242E2,2.029644E0,9.390709E0,2.0705743E0,9.520415E0,5.3867893E0,1.0954779E0,5.8377523E0,1.5115627E1,1.3447404E1,4.914417E0,9.572649E2,1.0210464E1,5.624491E0,3.4406376E1,9.410178E2,4.000409E0,5.3903E0,7.4353685E0,2.085047E0,1.4078783E1,1.0368439E0,1.2378045E0,1.22095995E1,2.695263E0,2.219154E0,8.086583E0,2.1238806E0,3.1050795E1,3.355579E0,1.9230876E0,3.4672122E0,5.2276435E0,2.2077253E0,7.655216E0,6.4235673E0,1.2644931E0,1.09451065E1,1.069779E0,1.1493748E0,1.0744277E0,7.012155E0],"tree_param":{"num_deleted":"0","num_feature":"18","num_nodes":"57","size_leaf_vector":"1"}},{"base_weights":[1.2669896E-3,-1.1353172E0,1.1417191E0,-1.1593044E0,-6.233026E-2,1.1711609E0,-5.3612715E-1,-1.1710598E0,-1.6443035E-1,5.253582E-2,-4.7818655E-1,7.869637E-1,1.1819098E0,-6.5849966E-1,3.485239E-2,-1.1748159E0,1.9206159E-2,3.367521E-1,-7.5888044E-1,-6.9007236E-1,1.4756215E-1,5.2014214E-1,1.0326146E0,6.340472E-1,5.9205174E-2,-3.791608E-1,-5.145688E-2,-8.936988E-1,-5.9211142E-2,-1.8216345E-2,7.462318E-1,-2.5148925E-1,-4.930265E-2,-7.9185896E-2,-5.306227E-2,-3.0628568E-2,8.247116E-1,6.815009E-1,-4.5934968E-2,1.7105987E-2,1.0721259E0,4.681539E-2,-3.2456012E-3,-7.6711255E-1,4.2973366E-2,-5.2097213E-2,6.8801367E-3,1.0575914E-2,4.5425773E-2,-3.1888247E-2,1.11067705E-2,-2.0744042E-2,3.787602E-2,4.9516533E-2,1.30635E-2,2.331425E-2,5.5070367E-2,1.7601252E-2,5.5992205E-2,3.485239E-2,-5.278867E-2],"categories":[],"categories_nodes":[],"categories_segments":[],"categories_sizes":[],"default_left":[0,0,0,0,0,0,0,0,0,0,0,0,0,0,0,0,0,0,0,0,0,0,0,0,0,0,0,0,0,0,0,0,0,0,0,0,0,0,0,0,0,0,0,0,0,0,0,0,0,0,0,0,0,0,0,0,0,0,0,0,0],"id":23,"left_children":[1,3,5,7,9,11,13,15,17,-1,19,21,23,25,-1,27,-1,29,31,33,35,37,39,41,-1,43,-1,45,-1,-1,47,49,-1,51,-1,-1,53,55,-1,-1,57,-1,-1,59,-1,-1,-1,-1,-1,-1,-1,-1,-1,-1,-1,-1,-1,-1,-1,-1,-1],"loss_changes":[2.5172556E3,2.4961792E1,4.851245E1,1.0933228E1,1.083618E1,3.005249E0,3.0851073E0,5.942749E0,3.9119875E0,0E0,2.3478928E0,1.3589916E0,3.6083984E-1,1.3020887E0,0E0,1.4223633E0,0E0,2.3823104E0,4.345529E-1,2.8253841E0,3.1349196E0,4.3133073E0,1.6430855E-2,1.2949307E0,0E0,5.8989944E0,0E0,5.4100933E0,0E0,0E0,2.3901176E-1,7.222858E-1,0E0,1.9799598E0,0E0,0E0,3.3168554E-2,8.2881355E-1,0E0,0E0,4.6227455E-2,0E0,0E0,4.468612E0,0E0,0E0,0E0,0E0,0E0,0E0,0E0,0E0,0E0,0E0,0E0,0E0,0E0,0E0,0E0,0E0,0E0],"parents":[2147483647,0,0,1,1,2,2,3,3,4,4,5,5,6,6,7,7,8,8,10,10,11,11,12,12,13,13,15,15,17,17,18,18,19,19,20,20,21,21,22,22,23,23,25,25,27,27,30,30,31,31,33,33,36,36,37,37,40,40,43,43],"right_children":[2,4,6,8,10,12,14,16,18,-1,20,22,24,26,-1,28,-1,30,32,34,36,38,40,42,-1,44,-1,46,-1,-1,48,50,-1,52,-1,-1,54,56,-1,-1,58,-1,-1,60,-1,-1,-1,-1,-1,-1,-1,-1,-1,-1,-1,-1,-1,-1,-1,-1,-1],"split_conditions":[1.8E-1,1E0,1E0,-6E-2,1.234E1,9.45022E-4,1.77575E3,1E0,5.6701316E-3,5.253582E-2,5E0,5E0,3.9E-1,1.4453277E-3,3.485239E-2,9.45022E-4,1.9206159E-2,4.22E0,8.29E0,3E0,3.92E0,4E0,6.4E-1,5.6701316E-3,5.9205174E-2,9.45022E-4,-5.145688E-2,8.8943244E-4,-5.9211142E-2,-1.8216345E-2,2.112402E-3,9.4E-1,-4.930265E-2,8.54E0,-5.306227E-2,-3.0628568E-2,1.58E1,1.79667E3,-4.5934968E-2,1.7105987E-2,2.7794763E-4,4.681539E-2,-3.2456012E-3,2.782E1,4.2973366E-2,-5.2097213E-2,6.8801367E-3,1.0575914E-2,4.5425773E-2,-3.1888247E-2,1.11067705E-2,-2.0744042E-2,3.787602E-2,4.9516533E-2,1.30635E-2,2.331425E-2,5.5070367E-2,1.7601252E-2,5.5992205E-2,3.485239E-2,-5.278867E-2],"split_indices":[1,13,13,1,4,17,4,15,17,0,3,3,1,17,0,17,0,0,2,6,0,6,1,17,0,17,0,17,0,0,17,4,0,0,0,0,2,1,0,0,17,0,0,4,0,0,0,0,0,0,0,0,0,0,0,0,0,0,0,0,0],"split_type":[0,0,0,0,0,0,0,0,0,0,0,0,0,0,0,0,0,0,0,0,0,0,0,0,0,0,0,0,0,0,0,0,0,0,0,0,0,0,0,0,0,0,0,0,0,0,0,0,0,0,0,0,0,0,0,0,0,0,0,0,0],"sum_hessian":[1.9399974E3,9.716487E2,9.6834875E2,9.5032324E2,2.1325485E1,9.519466E2,1.6402157E1,9.3905035E2,1.1272878E1,5.3852186E0,1.5940267E1,2.7928205E1,9.240184E2,1.534539E1,1.056767E0,9.370318E2,2.018572E0,6.3514557E0,4.9214225E0,1.1831266E1,4.109E0,1.4881541E1,1.3046664E1,4.8416514E0,9.191767E2,9.90402E0,5.44137E0,3.3448734E1,9.0358307E2,2.382535E0,3.9689205E0,2.1736357E0,2.747787E0,4.9302573E0,6.901009E0,1.9808105E0,2.1281896E0,1.3854215E1,1.027326E0,1.228925E0,1.18177395E1,3.1429343E0,1.6987171E0,7.831717E0,2.072303E0,2.9235876E1,4.2128587E0,1.4603974E0,2.5085232E0,1.0063343E0,1.1673014E0,3.8783674E0,1.0518899E0,1.0592006E0,1.0689889E0,1.0554919E1,3.299296E0,1.255066E0,1.0562674E1,1.056767E0,6.77495E0],"tree_param":{"num_deleted":"0","num_feature":"18","num_nodes":"61","size_leaf_vector":"1"}},{"base_weights":[1.3408556E-3,-1.1236039E0,1.1305974E0,-1.1479445E0,-5.8114238E-2,1.1599315E0,-5.242982E-1,-5.838864E-2,-5.1445276E-1,5.175301E-2,-4.609347E-1,7.6791555E-1,1.1711386E0,-6.4669025E-1,3.4257025E-2,-7.453436E-1,5.6588244E-1,-7.4087876E-1,3.129302E-2,5.0254124E-1,1.0165365E0,6.1970454E-1,5.86702E-2,-3.6846602E-1,-5.0726987E-2,-9.1468036E-1,3.3566494E-2,1.498923E0,-5.3448546E-1,-9.3916225E-1,1.9403609E-3,3.9597686E-2,-2.9024678E-1,6.61161E-1,-4.4996247E-2,1.6701596E-2,1.0566454E0,4.9705576E-2,4.654926E-4,-7.5266045E-1,4.223933E-2,-4.780717E-2,-6.9254474E-3,9.620422E-2,2.4272028E-2,-7.11044E-3,-3.3705052E-2,-5.2633554E-2,-1.7074734E-2,1.0988033E-2,-4.0915653E-2,4.442435E-2,1.5534371E-2,1.718398E-2,5.5265542E-2,3.087443E-2,-2.8962303E-2,3.4257025E-2,-5.2077778E-2],"categories":[],"categories_nodes":[],"categories_segments":[],"categories_sizes":[],"default_left":[0,0,0,0,0,0,0,0,0,0,0,0,0,0,0,0,0,0,0,0,0,0,0,0,0,0,0,0,0,0,0,0,0,0,0,0,0,0,0,0,0,0,0,0,0,0,0,0,0,0,0,0,0,0,0,0,0,0,0],"id":24,"left_children":[1,3,5,7,9,11,13,-1,15,-1,17,19,21,23,-1,25,27,29,31,33,35,37,-1,39,-1,41,-1,43,45,47,-1,-1,49,51,-1,-1,53,-1,55,57,-1,-1,-1,-1,-1,-1,-1,-1,-1,-1,-1,-1,-1,-1,-1,-1,-1,-1,-1],"loss_changes":[2.3702512E3,2.4174194E1,4.5809814E1,1.0877319E1,1.0133598E1,3.121582E0,2.945621E0,0E0,7.785353E0,0E0,2.3266075E0,1.3590736E0,3.81958E-1,1.2500758E0,0E0,6.552376E0,6.72168E0,1.690095E0,1.9467762E0,4.084646E0,2.0846367E-2,1.3330688E0,0E0,5.5787907E0,0E0,5.927677E-1,0E0,5.238714E-1,8.942759E-2,2.2173405E-1,0E0,0E0,1.7057544E0,8.9268684E-1,0E0,0E0,5.1577568E-2,0E0,1.4907637E0,4.278676E0,0E0,0E0,0E0,0E0,0E0,0E0,0E0,0E0,0E0,0E0,0E0,0E0,0E0,0E0,0E0,0E0,0E0,0E0,0E0],"parents":[2147483647,0,0,1,1,2,2,3,3,4,4,5,5,6,6,8,8,10,10,11,11,12,12,13,13,15,15,16,16,17,17,18,18,19,19,20,20,21,21,23,23,25,25,27,27,28,28,29,29,32,32,33,33,36,36,38,38,39,39],"right_children":[2,4,6,8,10,12,14,-1,16,-1,18,20,22,24,-1,26,28,30,32,34,36,38,-1,40,-1,42,-1,44,46,48,-1,-1,50,52,-1,-1,54,-1,56,58,-1,-1,-1,-1,-1,-1,-1,-1,-1,-1,-1,-1,-1,-1,-1,-1,-1,-1,-1],"split_conditions":[1.8E-1,1E0,1E0,-6.5E-1,1.234E1,9.45022E-4,1.77575E3,-5.838864E-2,5E0,5.175301E-2,1.265E1,5E0,3.9E-1,1.4453277E-3,3.4257025E-2,5.468E1,6.2816166E-3,1.251E1,5.0030573E-4,4E0,6.4E-1,8.18E0,5.86702E-2,9.45022E-4,-5.0726987E-2,1E0,3.3566494E-2,7.7825336E-4,1.8233364E-2,5E0,1.9403609E-3,3.9597686E-2,3.317E1,8.5363E2,-4.4996247E-2,1.6701596E-2,2.7794763E-4,4.9705576E-2,7.35E0,2.782E1,4.223933E-2,-4.780717E-2,-6.9254474E-3,9.620422E-2,2.4272028E-2,-7.11044E-3,-3.3705052E-2,-5.2633554E-2,-1.7074734E-2,1.0988033E-2,-4.0915653E-2,4.442435E-2,1.5534371E-2,1.718398E-2,5.5265542E-2,3.087443E-2,-2.8962303E-2,3.4257025E-2,-5.2077778E-2],"split_indices":[1,13,13,1,4,17,4,0,3,0,2,3,1,17,0,0,17,0,17,6,1,2,0,17,0,15,0,17,17,3,0,0,2,5,0,0,17,0,0,4,0,0,0,0,0,0,0,0,0,0,0,0,0,0,0,0,0,0,0],"split_type":[0,0,0,0,0,0,0,0,0,0,0,0,0,0,0,0,0,0,0,0,0,0,0,0,0,0,0,0,0,0,0,0,0,0,0,0,0,0,0,0,0,0,0,0,0,0,0,0,0,0,0,0,0,0,0,0,0,0,0],"sum_hessian":[1.8638235E3,9.336967E2,9.301268E2,9.127677E2,2.0929003E1,9.142206E2,1.5906168E1,8.8424725E2,2.8520485E1,5.2128463E0,1.5716157E1,2.7341805E1,8.868788E2,1.4866966E1,1.0392014E0,2.3753855E1,4.766629E0,9.696388E0,6.0197687E0,1.4686728E1,1.2655076E1,4.7517633E0,8.82127E2,9.604355E0,5.2626114E0,2.1534193E1,2.2196624E0,2.3834321E0,2.3831973E0,7.5673747E0,2.1290133E0,1.3538909E0,4.6658783E0,1.3669295E1,1.0174327E0,1.2201837E0,1.1434893E1,2.5840237E0,2.1677394E0,7.582787E0,2.0215676E0,2.0222061E1,1.3121321E0,1.0460993E0,1.3373328E0,1.1554143E0,1.227783E0,5.719778E0,1.8475969E0,2.6705217E0,1.9953563E0,7.360188E0,6.309107E0,1.2457848E0,1.0189108E1,1.0185103E0,1.1492292E0,1.0392014E0,6.543586E0],"tree_param":{"num_deleted":"0","num_feature":"18","num_nodes":"59","size_leaf_vector":"1"}},{"base_weights":[1.4502122E-3,-1.112192E0,1.1201377E0,-1.1368145E0,-5.657041E-2,1.1493856E0,-5.1281404E-1,-5.7865977E-2,-4.963957E-1,-5.1127416E-1,8.782228E-1,7.497686E-1,1.1610473E0,-6.3526803E-1,3.3679523E-2,-7.257168E-1,5.4989403E-1,-1.3614103E-1,-5.27441E-2,-2.333021E-3,5.2085515E-2,4.8560965E-1,1.0009897E0,6.054889E-1,5.817012E-2,-3.580459E-1,-5.0022632E-2,-8.7562776E-1,3.9219525E-2,1.4411824E0,-5.246856E-1,-7.149971E-1,7.1032174E-2,6.41904E-1,-4.40907E-2,1.6307428E-2,1.0417372E0,4.877944E-2,5.9878483E-5,-7.3864585E-1,4.152858E-2,-4.5760777E-2,-6.727592E-3,9.187516E-2,2.356465E-2,-6.9325366E-3,-3.3182777E-2,-5.1594056E-2,4.578439E-3,2.1219304E-2,5.3625938E-2,1.6777335E-2,5.45708E-2,3.3679523E-2,-5.139305E-2],"categories":[],"categories_nodes":[],"categories_segments":[],"categories_sizes":[],"default_left":[0,0,0,0,0,0,0,0,0,0,0,0,0,0,0,0,0,0,0,0,0,0,0,0,0,0,0,0,0,0,0,0,0,0,0,0,0,0,0,0,0,0,0,0,0,0,0,0,0,0,0,0,0,0,0],"id":25,"left_children":[1,3,5,7,9,11,13,-1,15,17,19,21,23,25,-1,27,29,31,-1,-1,-1,33,35,37,-1,39,-1,41,-1,43,45,47,-1,49,-1,-1,51,-1,-1,53,-1,-1,-1,-1,-1,-1,-1,-1,-1,-1,-1,-1,-1,-1,-1],"loss_changes":[2.232523E3,2.3277222E1,4.3286377E1,1.0948975E1,9.596835E0,3.223755E0,2.8136854E0,0E0,7.351412E0,2.9378643E0,1.1691613E0,1.3544283E0,4.1015625E-1,1.2008615E0,0E0,6.1647663E0,6.290104E0,1.0107559E1,0E0,0E0,0E0,3.8704424E0,2.5224686E-2,1.2693834E0,0E0,5.2784195E0,0E0,5.365124E-1,0E0,4.506235E-1,8.784878E-2,2.1442199E0,0E0,8.987031E-1,0E0,0E0,5.692959E-2,0E0,0E0,4.0987616E0,0E0,0E0,0E0,0E0,0E0,0E0,0E0,0E0,0E0,0E0,0E0,0E0,0E0,0E0,0E0],"parents":[2147483647,0,0,1,1,2,2,3,3,4,4,5,5,6,6,8,8,9,9,10,10,11,11,12,12,13,13,15,15,16,16,17,17,21,21,22,22,23,23,25,25,27,27,29,29,30,30,31,31,33,33,36,36,39,39],"right_children":[2,4,6,8,10,12,14,-1,16,18,20,22,24,26,-1,28,30,32,-1,-1,-1,34,36,38,-1,40,-1,42,-1,44,46,48,-1,50,-1,-1,52,-1,-1,54,-1,-1,-1,-1,-1,-1,-1,-1,-1,-1,-1,-1,-1,-1,-1],"split_conditions":[1.8E-1,1E0,1E0,-6.5E-1,1.4453277E-3,9.45022E-4,1.77575E3,-5.7865977E-2,5E0,9.45022E-4,3.07E0,5E0,3.9E-1,1.4453277E-3,3.3679523E-2,8.464E1,6.2816166E-3,7.226638E-4,-5.27441E-2,-2.333021E-3,5.2085515E-2,4E0,6.4E-1,8.18E0,5.817012E-2,9.45022E-4,-5.0022632E-2,1E0,3.9219525E-2,7.7825336E-4,1.8233364E-2,1.265E1,7.1032174E-2,1.79667E3,-4.40907E-2,1.6307428E-2,2.7794763E-4,4.877944E-2,5.9878483E-5,2.782E1,4.152858E-2,-4.5760777E-2,-6.727592E-3,9.187516E-2,2.356465E-2,-6.9325366E-3,-3.3182777E-2,-5.1594056E-2,4.578439E-3,2.1219304E-2,5.3625938E-2,1.6777335E-2,5.45708E-2,3.3679523E-2,-5.139305E-2],"split_indices":[1,13,13,1,17,17,4,0,3,17,0,3,1,17,0,0,17,17,0,0,0,6,1,2,0,17,0,15,0,17,17,2,0,1,0,0,17,0,0,4,0,0,0,0,0,0,0,0,0,0,0,0,0,0,0],"split_type":[0,0,0,0,0,0,0,0,0,0,0,0,0,0,0,0,0,0,0,0,0,0,0,0,0,0,0,0,0,0,0,0,0,0,0,0,0,0,0,0,0,0,0,0,0,0,0,0,0,0,0,0,0,0,0],"sum_hessian":[1.7900142E3,8.970328E2,8.9298145E2,8.765112E2,2.0521555E1,8.775595E2,1.5421917E1,8.4853546E2,2.7975788E1,1.4110811E1,6.410743E0,2.6734417E1,8.508251E2,1.4400158E1,1.0217593E0,2.319779E1,4.7779984E0,9.0890665E0,5.021745E0,1.0703186E0,5.3404245E0,1.4461326E1,1.2273091E1,4.6810308E0,8.4614404E2,9.311775E0,5.0883827E0,2.1485085E1,1.7127053E0,2.4252584E0,2.3527403E0,7.0196757E0,2.0693903E0,1.3454116E1,1.0072095E0,1.2115829E0,1.1061508E1,2.521994E0,2.1590366E0,7.3400345E0,1.9717402E0,2.0172503E1,1.3125825E0,1.086669E0,1.3385894E0,1.1515715E0,1.2011687E0,4.839126E0,2.1805499E0,1.0257995E1,3.1961215E0,1.2366531E0,9.824856E0,1.0217593E0,6.3182755E0],"tree_param":{"num_deleted":"0","num_feature":"18","num_nodes":"55","size_leaf_vector":"1"}},{"base_weights":[1.5871563E-3,-1.1014307E0,1.1102315E0,-1.1262661E0,-5.4147452E-2,1.1394101E0,-5.01646E-1,-1.14749E0,-4.7864437E-1,5.0410934E-2,-4.3849635E-1,7.317247E-1,1.1515788E0,-6.2419957E-1,3.3118956E-2,-5.7523448E-2,-7.75642E-1,-7.061434E-1,5.3432167E-1,-5.184217E-2,-2.0282272E-1,4.6914074E-1,9.859203E-1,5.904513E-1,5.770216E-2,-3.4787855E-1,-4.934145E-2,1.3287887E-2,-5.0554957E-2,-8.714218E-1,3.2495838E-2,1.3870438E0,-5.151167E-1,6.895752E-2,-6.3298935E-1,8.5982215E-1,2.6654746E-2,1.5923195E-2,1.0273439E0,4.5208517E-2,-4.5411005E-3,-7.2503036E-1,4.083952E-2,-4.5654573E-2,-6.53547E-3,8.789693E-2,2.2879655E-2,-6.7590917E-3,-3.2672863E-2,3.2909825E-2,-4.5421306E-2,3.5580366E-3,5.163764E-2,-3.7119232E-2,5.2274384E-2,1.6380968E-2,5.390492E-2,3.3118956E-2,-5.0731976E-2],"categories":[],"categories_nodes":[],"categories_segments":[],"categories_sizes":[],"default_left":[0,0,0,0,0,0,0,0,0,0,0,0,0,0,0,0,0,0,0,0,0,0,0,0,0,0,0,0,0,0,0,0,0,0,0,0,0,0,0,0,0,0,0,0,0,0,0,0,0,0,0,0,0,0,0,0,0,0,0],"id":26,"left_children":[1,3,5,7,9,11,13,15,17,-1,19,21,23,25,-1,-1,27,29,31,-1,33,35,37,39,-1,41,-1,-1,-1,43,-1,45,47,-1,49,51,53,-1,55,-1,-1,57,-1,-1,-1,-1,-1,-1,-1,-1,-1,-1,-1,-1,-1,-1,-1,-1,-1],"loss_changes":[2.1037551E3,2.2369019E1,4.092517E1,1.1028809E1,9.027909E0,3.3395996E0,2.6887808E0,1.0375977E-2,6.9324064E0,0E0,2.0653708E0,1.3514404E0,